146 300
TC 0.119338565 0.12722164 0.28539786 -0.1084217 0.128901 -0.22175898 0.13534 -0.008430905 -0.10493057 -0.12935811 -0.021785067 0.061526086 -0.016566647 0.047139604 0.07570903 -0.14893754 0.12152086 0.09848359 0.0061906707 0.008174803 -0.06329163 0.041401464 -0.041387375 0.107698664 0.10067667 -0.03131342 0.03139321 -0.08274952 -0.03696513 -0.06343884 0.00054155453 0.032119885 -0.21192428 -0.03705083 0.17459658 0.005680508 0.07577311 -0.17180353 -0.046886124 0.0004751947 0.01942722 -0.10182863 -0.06510242 0.026925113 -0.051251993 -0.053780027 -0.13833758 0.16293128 0.23485793 -0.017728534 0.0067856577 -0.03603999 -0.097959965 0.067677714 -0.1361908 -0.08213814 0.007431719 -0.0747008 0.0028627648 -0.015146892 0.14918415 0.031245418 -0.003180186 0.1428 0.047409587 -0.088008985 -0.07473567 -0.06501712 0.118419304 -0.15782847 0.056205735 0.07255265 0.071109295 0.0039116014 -0.14316337 0.01952105 -0.07073201 0.0048099626 -0.13072467 -0.012010707 0.062269025 0.047626417 -0.13178498 -0.0047365297 0.028292127 0.20379287 -0.0767482 -0.049722247 0.018219437 0.0062139034 -0.059405964 -0.033725645 -0.16178904 0.017109713 0.01511746 -0.04375826 -0.06448538 -0.27581188 -0.08754884 0.09648779 -0.00361024 -0.1296512 0.15063946 -0.022774909 0.11964978 -0.054830287 -0.014070932 0.06899492 0.19330524 0.16199103 0.0042224196 -0.00022273594 -0.062794104 -0.08907551 0.09698803 0.050523546 -0.0853325 0.00788578 0.0819196 0.036381695 0.10502248 -0.023980247 0.10162708 0.09898811 0.049166176 -0.002175967 -0.0847803 -0.004771272 -0.08406656 0.045372367 -0.07672291 -0.0032302008 -0.11956188 -0.011381441 0.092918016 0.05502328 -0.19266446 0.17451099 -0.024550796 0.1013992 -0.19016849 0.03420239 -0.012227608 0.16510269 -0.008824998 0.0047006076 0.006037202 -0.047741994 0.25513756 -0.011304272 -0.075422674 -0.04155712 0.04312184 -0.08192994 0.0046618516 -0.05085688 -0.06766782 -0.026720174 0.020395014 -0.082359895 0.06430784 -0.15541324 -0.15925655 0.06423698 0.057819393 0.19620405 -0.14415067 0.27697188 -0.25249127 -0.11103317 0.198815 0.056253918 -0.12190565 -0.0818896 0.14502962 0.085783824 0.16703892 -0.11998064 0.047339704 -0.22471458 -0.06062889 -0.009609494 -0.017762713 0.018260233 -0.03273556 -0.0067585176 -0.06459766 0.0151229035 -0.060609102 0.117164426 -0.004729258 0.06317988 0.23288761 0.10275025 -0.053348675 -0.1615791 -0.10709645 -0.097003065 -0.16113356 -0.17170541 0.23591518 0.0043964386 0.0590415 -0.18920009 -0.081428185 0.115715146 0.14107773 -0.017013444 0.08387441 -0.022907045 -0.03392948 -0.0701544 -0.07247449 -0.10132851 0.13334984 0.05641406 0.106095925 -0.07830175 0.022057137 0.05466227 -0.058174744 -0.08561937 0.08521356 -0.08208456 0.008088138 -0.052928954 -0.0005485482 -0.107802235 0.28889334 -0.035816297 0.048071675 -0.049940053 -0.0077767638 -0.11910931 -0.0007431772 0.06728557 -0.058250427 -0.04775904 -0.33777246 0.1563604 0.21303086 0.037255086 -0.22839938 0.051023167 -0.050189283 -0.12637933 0.014570143 -0.16405167 -0.19882499 -0.14825991 0.047128703 0.088214785 -0.16700728 0.26301554 -0.0191798 0.06505554 0.112326436 -0.07413117 0.031296678 0.11997322 -0.12570442 -0.051597998 -0.13765241 0.09583728 -0.09619349 0.009657238 -0.011792938 -0.04303419 0.066160195 0.18701285 0.01941657 -0.05647238 0.026631514 0.018180873 -0.100492135 -0.08318538 -0.059722528 0.10825345 0.023506178 0.04781266 0.029678741 0.13299644 -0.1994729 -0.049162712 0.050409116 0.05738073 -0.06666401 0.14858407 0.021823976 -0.08866603 0.08539788 -0.09055099 0.014649775 -0.093139276 0.15116018 0.08177178 -0.040107355 0.14372326 0.02966188 -0.07466484
AC 0.09139209 0.16844219 0.14057572 -0.10716719 0.06839233 -0.19005851 0.045638666 0.123504214 -0.038473886 -0.046625648 -0.0020443532 0.028613515 -0.031149678 -0.00010534128 -0.007541133 -0.070531234 0.07556812 0.13459328 0.06716315 -0.06495118 -0.012874921 -0.0013071166 -0.079343215 0.08540491 0.13831538 -0.0031800536 -0.023619281 -0.09776725 -0.034342077 -0.06777705 -0.003925562 0.007625712 -0.26605603 -0.035016432 0.23399162 0.085870214 0.05025438 -0.18812832 0.03368841 -0.027388891 0.07553082 -0.12903701 -0.064471826 0.022923866 0.04534523 -0.024237527 -0.142357 0.23747094 0.18414815 0.029828237 -0.033372097 -0.04647501 -0.043877125 0.14097577 -0.21237026 -0.01708754 0.053985015 -0.06850415 0.08116703 -0.008236382 0.12612592 0.0046047103 -0.06005287 0.14356188 0.045917086 -0.07972235 -0.047811754 -0.021345668 0.10260519 -0.14905927 0.09874901 0.10913184 0.12413295 0.0027569134 -0.08786641 0.008263852 -0.09856616 0.009183671 -0.21393506 0.08202781 0.143949 0.11556276 -0.17125493 -0.01412291 0.034047946 0.19338956 -0.10137599 -0.043193128 0.080394685 0.024600876 -0.028364606 -0.013943632 -0.12504292 -0.018795703 0.061916247 0.0031006502 -0.02243096 -0.28285804 -0.013666524 0.010662873 -0.037813187 -0.12797762 0.15997617 -0.046776082 0.06820296 -0.039719053 -0.07988744 0.06775972 0.22708076 0.1828181 -0.008764876 -0.03532987 -0.09838571 -0.03500912 0.04454778 0.047176864 -0.08724928 -0.018931322 0.01671313 0.026861377 0.10746394 -0.033561654 0.07894853 0.07751225 0.048328213 0.014137096 -0.041036844 0.008067727 -0.12509301 0.02173841 -0.07978519 -0.051507037 -0.13197356 0.08944596 0.0808526 0.10077796 -0.27119547 0.15954232 -0.007888715 0.081965834 -0.18748246 -0.036210854 -0.0058095125 0.21108007 0.06760953 -0.0991759 0.015690241 -0.02429088 0.3183606 0.045172676 -0.04353955 -0.07615478 -0.039948504 -0.1021516 0.035627842 0.02694591 -0.00081501406 -0.0013293094 0.033570714 -0.0463855 0.09035155 -0.089167185 -0.14754589 0.05291205 -0.07155856 0.2409566 -0.17848055 0.21904023 -0.27153438 -0.17730635 0.045178678 0.10345557 -0.08405919 -0.025060283 0.17878734 0.12841661 0.114898525 -0.0990262 0.073512346 -0.23291911 -0.040269546 -0.03646689 0.04714563 0.020557126 -0.047747716 -0.018995205 -0.09366883 -0.0036000146 -0.1072318 0.07660609 0.05210878 -0.028276972 0.25300044 0.13656132 -0.060079627 -0.2200319 -0.0760741 -0.07847076 -0.1334466 -0.17828989 0.21306986 -0.045280352 -0.00034205118 -0.1148537 -0.044987544 0.10456094 0.19430225 -0.04566002 0.09667035 -0.08510404 -0.011377265 -0.104447685 -0.054150376 -0.0550424 0.1314766 0.0154828215 0.07657763 -0.101165324 0.022212718 0.052635524 -0.05590807 -0.059199255 0.087183 0.012302763 0.046708796 -0.13873309 0.00025301508 -0.1472408 0.2363953 0.041406646 -0.033269696 0.0066303047 -0.08540126 -0.07675975 -0.0551743 0.072703734 -0.079549775 -0.022300057 -0.3990773 0.102524966 0.2536833 -0.028445857 -0.20233843 -0.0538693 -0.08115949 -0.112240046 0.14380497 -0.10899864 -0.17918502 -0.12217978 -0.04469564 0.07879137 -0.13819186 0.19827634 -0.08602058 0.060472768 -0.111866444 -0.07356919 0.026981195 0.0978393 -0.10468402 -0.075787045 -0.1412769 0.053098544 -0.1607588 0.0034969514 -0.10143234 -0.09937468 0.09920247 0.060110528 0.02599295 -0.07474388 0.040438678 0.031032404 -0.10452747 -0.03794172 -0.09909281 0.036112793 -0.019644698 0.0022795862 -0.027554989 0.13375443 -0.24738047 0.009153028 0.040292285 -0.03393438 -0.037617005 0.18148552 0.010716134 -0.11566063 0.11905207 -0.10124106 0.037741527 -0.12130936 0.1218906 0.0919464 -0.026722802 0.15574276 0.021426465 -0.09091774
AG 0.08135471 0.25974506 0.1464208 -0.068135634 0.14223178 -0.17192346 0.023283716 -0.0902209 -0.0684544 -0.0348527 -0.10219814 -0.0008318689 0.028747061 0.062929034 -0.042948816 -0.07717591 0.073234744 0.06733397 -0.0036400158 -0.018526442 -0.0010804071 0.060552463 -0.10017983 0.060250204 0.1283443 0.01625228 0.022123761 -0.16473961 0.009638531 0.0021353033 -0.05795735 0.029508604 -0.1659623 0.054872777 0.15902603 -0.04699225 0.086038694 -0.18810558 0.0044765472 0.05531854 0.099380255 -0.14649405 -0.04099144 0.015418742 0.027012428 -0.024494834 -0.11513289 0.21863294 0.18387625 -0.05348526 -0.06545389 -0.11938357 -0.12852418 0.095542796 -0.12706941 -0.055667028 0.06785467 -0.09867388 0.00069318217 -0.010276861 0.15093881 -0.0060994094 0.0029099253 0.13456258 -0.026076794 -0.13771343 -0.06538616 -0.025348477 -0.008951502 -0.1487686 0.011193408 0.053142276 0.080853805 -0.011153857 -0.0850403 -0.0275543 -0.052782986 -0.005272044 -0.14755479 -0.031170342 0.022026671 0.1019468 -0.16732442 -0.047493458 -0.009105179 0.070191875 -0.09649534 0.0113932025 -0.0067055426 -0.10077233 -0.09287956 -0.016788665 -0.16502166 -0.027181307 0.057094257 -0.002256741 -0.04755762 -0.24279012 -0.109700575 0.053433284 -0.015668975 -0.10198157 0.047188178 0.011535949 0.085023135 -0.0065078866 -0.021690369 0.051110346 -0.03565791 0.16385913 0.09466313 -0.018695036 -0.08251837 -0.04208429 0.12406543 0.031118313 -0.0976991 -0.002325409 -0.078096546 0.054284897 0.073118106 -0.05889993 0.09221326 0.037717387 -0.01699543 -0.011496782 -0.077167004 0.009208756 -0.12760645 0.009888927 -0.11674523 -0.06809836 -0.10753933 -0.0055061844 0.11864486 0.04690549 -0.21272898 0.22041768 -0.119109154 0.025611082 -0.25119585 0.01665444 -0.009369373 0.25719315 0.11299948 -0.031516816 0.014040781 0.026670575 0.2752799 -0.020671792 -0.14547971 -0.08209562 -0.029901199 -0.08166412 0.07761744 -0.019655652 -0.01350032 -0.0718752 -0.05298604 -0.1230562 0.09292878 -0.10952379 -0.118487135 0.042266555 -0.095414214 0.3333185 -0.13530244 0.29593787 -0.26248693 -0.12840573 0.08370638 0.11604622 -0.023074362 -0.021554776 0.16808671 0.06538168 0.09675533 -0.20400524 0.0726691 -0.21820384 0.026423732 -0.076579645 -0.0047045285 0.0053129992 0.057707377 0.01571038 -0.056198332 -0.039072115 -0.15661615 0.058374565 0.01583939 0.020627154 0.290005 0.17168747 -0.010590818 -0.15092383 -0.06614044 -0.063936725 -0.08441857 -0.18310332 0.29290026 0.04915137 -0.011101802 -0.23497121 -0.06403372 0.23777989 0.14207533 -0.08189935 0.027115881 -0.15465397 -0.069337144 -0.08055237 0.0021889182 -0.034571238 0.10836741 0.03410199 0.110466905 -0.02913785 0.13001026 0.04384379 -0.043294057 -0.0022928184 0.07758413 -0.101150036 0.019386232 -0.050710738 0.050565943 -0.15113752 0.28291512 0.06689027 0.08145003 0.03324 -0.031059 -0.07711747 -0.10250335 0.096727334 -0.11527708 0.027310448 -0.345837 0.17084973 0.1740289 0.0040163198 -0.20868617 -0.08966042 -0.03401536 -0.061526194 -0.021134112 -0.07501064 -0.21634181 -0.1866104 0.13042998 0.08016496 -0.080457956 0.29308993 -0.05426285 0.03882718 0.049311116 -0.04933663 0.034162574 0.0059491596 -0.08053565 -0.07595673 -0.16821767 0.052873082 -0.11985866 0.035266504 -0.10698538 -0.026723227 0.15995929 0.061981957 -0.0073293317 -0.089323625 0.11770739 -0.0881467 -0.08983783 0.010301756 -0.16204597 0.015323837 0.022791782 -0.09504721 0.05341951 0.15236293 -0.15215784 -0.031989474 0.09666154 0.077457 -0.00624258 0.0971494 0.005197326 -0.099336356 0.07305344 -0.018619193 -0.008227825 -0.029344533 0.058692593 0.049472783 -0.035491295 0.16297121 0.005645891 -0.05814135
TG 0.13753623 0.27128083 0.31722757 -0.07010163 0.095652156 -0.10348573 0.030976372 0.04725337 -0.13055915 -0.1013625 -0.04033498 0.026042568 0.0066744257 -0.0477114 0.04618214 -0.16903168 0.15721256 0.06888917 0.03923077 0.03271469 -0.094003916 0.0329753 -0.100519866 0.00944584 0.0526683 -0.05011402 0.03737569 -0.08120805 -0.08024081 0.02308872 0.016224388 0.066852435 -0.15139982 -0.014809106 0.10166967 -0.018781556 0.104074664 -0.15553425 0.04904948 0.033674613 0.16434765 -0.16664273 0.01541302 0.009947803 -0.0022801294 -0.012913068 -0.056072872 0.2166289 0.18722783 -0.022976002 -0.09816796 -0.077137336 -0.025818612 0.066256195 -0.14820533 0.0014930037 0.019737031 -0.06413982 0.015235854 -0.004059831 0.10292382 -0.006279601 -0.039696377 0.13372807 0.051888626 -0.021188788 -0.047992203 -0.1065096 0.08533675 -0.0984485 0.02635593 0.062360387 0.080850035 -0.07217148 -0.20389849 -0.08787569 -0.05155084 -0.028497271 -0.025467196 -0.08600899 -0.0006600221 0.08247894 -0.15928239 -0.020117601 0.06528526 0.21254826 -0.13443302 -0.055455897 0.05781257 0.0067588887 -0.033538766 -0.04479963 -0.15718272 -0.057126362 0.019691309 0.0020161835 -0.10841012 -0.18621019 0.009771824 -0.015971316 -0.016782178 -0.077604495 0.116399445 -0.046603218 0.10300524 -0.02392096 -0.026771069 0.036848202 0.13497783 0.12523472 0.07047219 -0.06310055 -0.09730922 0.032305803 0.10398454 0.03643759 -0.12481015 0.03553162 -0.022068935 -0.01025229 0.08234665 -0.020977 0.057076402 0.14554276 0.03198809 -0.007720245 -0.062298138 -0.0038852063 -0.16492552 0.00049547356 -0.11597296 -0.023088243 -0.11832251 -0.032288022 0.10237041 0.11608158 -0.21521404 0.19009973 -0.034095988 0.16610609 -0.2117562 -0.052159138 0.035804007 0.22541915 0.012344877 -0.026309304 -0.09898791 -0.005862633 0.20780046 -0.006634209 -0.07540841 -0.015155422 -0.0027025407 -0.022652822 -0.048901625 -0.11774675 -0.014639748 -0.035209283 -0.03468643 -0.119909495 0.026791254 -0.113721386 -0.09169916 -0.044046666 -0.11881346 0.21706766 -0.10099321 0.30233282 -0.33255488 -0.20938629 0.14380717 0.21220271 -0.058965947 -0.09810046 0.13634539 0.09464908 0.09042922 -0.11613883 0.06750197 -0.23505197 -0.07423035 -0.05733727 0.05183644 -0.030711254 -0.04189351 0.0039956304 -0.07852766 -0.015551037 -0.061016217 0.15271585 0.04135855 0.05050177 0.26495996 0.13372542 -0.037931338 -0.23047501 -0.103535734 -0.06372297 -0.058835402 -0.2607714 0.1734489 0.012066411 0.09804792 -0.22599538 -0.10360071 0.094849855 0.05731736 -0.06932357 0.029225715 -0.063938245 -0.04381493 -0.083594 -0.048860658 -0.016400112 0.10551577 0.011288802 0.0236205 -0.02362609 0.10220255 0.016579475 -0.034088876 -0.027010627 0.055187173 -0.09799358 0.024164485 -0.12761171 -0.018842988 -0.08402888 0.22406833 0.069880165 0.024661668 0.00697883 -0.050382163 0.010944075 -0.036384847 0.048790652 -0.0318209 -0.04130504 -0.35299727 0.14815347 0.1645866 -0.04049308 -0.23196858 0.039678328 -0.048737258 -0.02810698 0.013677756 -0.12919971 -0.23303607 -0.17252357 0.032328103 0.15334868 -0.12470791 0.24431556 -0.040933635 -0.020027876 0.117422014 -0.11561361 0.07786768 0.11868637 -0.06970949 -0.08878672 -0.16488901 0.10630536 -0.084887736 -0.018981377 -0.010038827 -0.077732295 0.079864584 0.1382634 0.00711445 -0.03733966 0.10931841 -0.091169134 -0.07137774 -0.132756 -0.12277828 0.100766934 0.033438787 -0.030336479 -0.011367639 0.11412832 -0.20605513 -0.057683945 0.06240532 0.0530711 -0.06883948 0.15935434 -0.008726518 -0.018924614 0.060235158 -0.02423846 -0.023787418 -0.050357156 0.061254844 0.053887818 -0.006779247 0.16192591 0.047328793 0.0035873652
AA 0.1649108 0.22527453 -0.0034080877 -0.08936662 0.08943762 -0.1930015 0.12536389 0.06489667 0.03426907 0.058652103 -0.017720094 0.109241545 -0.09347224 -0.011326445 -0.077089176 -0.034737248 0.043746445 0.010950524 -0.041881654 0.08641745 -0.041648243 -0.04477374 0.030800799 0.14530355 0.01837745 0.029423045 0.030667901 -0.08418611 -0.03037844 -0.032263715 0.03754449 -0.0063629746 -0.13929652 -0.045681093 0.14962882 -0.027037488 0.066047534 -0.12236534 -0.011525618 -0.033833556 0.04042106 -0.10677889 -0.02713516 0.027216574 0.06141419 0.039612003 -0.093231864 0.19379115 0.09142822 -0.0323605 -0.02894052 -0.08645359 -0.022809016 0.115458265 -0.17725655 0.069966435 0.004160669 -0.09340797 0.06945291 -0.0137342345 0.124654055 -0.040033896 0.032596163 0.12659615 0.07020378 -0.16472617 -0.07188125 -0.076250605 0.11508303 -0.16503076 0.020764384 0.12787956 0.06115681 -0.04098018 -0.10118147 -0.010098617 -0.0854031 0.06547483 -0.07692454 -0.030201856 0.07256492 0.018384853 -0.10660348 -0.011862172 0.044487663 0.12924427 -0.11954229 0.045150664 -0.0054884157 0.0026005441 -0.02270188 0.015544785 -0.13061613 -0.03311221 0.011148413 -0.005148795 -0.0072737206 -0.16796526 -0.026833586 0.017915739 -0.074049614 -0.047464266 0.04036294 -0.05275293 0.05773745 0.009586639 -0.06042357 0.0911338 0.11281131 0.15097669 0.078165926 -0.12879097 -0.08833972 -0.051988143 0.01435958 0.03376122 -0.05176019 0.024211181 -0.049648672 0.041773267 0.07660716 -0.049493738 0.09376511 0.08012474 -0.011817362 -0.004986008 -0.05158999 -0.026155286 -0.1429381 0.015297532 -0.08655525 -0.078770615 -0.16144885 -0.018923776 0.14238967 0.09893116 -0.25687853 0.15195918 -0.035375807 0.16201337 -0.16825716 -0.09398987 0.02577126 0.2238871 0.11715855 -0.05307354 -0.04857109 -0.05239807 0.28665885 0.002950357 -0.06394107 -0.080723554 -0.033603683 -0.08668748 0.028372526 -0.037232023 -0.05888629 0.0017889208 -0.017571874 -0.07785347 0.115233645 -0.13188685 -0.10100485 0.040078957 -0.14457758 0.25874433 -0.16668603 0.22463067 -0.32532015 -0.10807246 0.0892704 0.19673392 -0.0013951726 -0.075443506 0.13117987 0.031080855 0.1668806 -0.05661032 0.058096316 -0.16368091 0.0032716724 -0.056073386 0.049264483 -0.020805292 -0.02223289 0.04546193 -0.11496475 -0.023841893 -0.09307224 0.052426934 0.051052716 0.050395403 0.26916155 0.1023585 -0.022111513 -0.12315096 -0.08743848 -0.069542855 -0.09714618 -0.17409082 0.17334825 0.028114267 0.06823594 -0.20069082 -0.08322007 0.05149436 0.10658792 -0.11505607 0.037354574 -0.11452767 -0.038677543 -0.073066026 -0.093511716 -0.013323837 0.11501869 0.005736106 0.100175165 -0.037074625 0.040666025 0.0025354757 -0.08748544 -0.052229337 0.053264286 0.0041880673 0.089396395 -0.11032062 0.09403004 -0.0771105 0.24223392 0.042603806 0.013534453 0.042342305 -0.06353304 -0.06318261 -0.12708099 0.071109384 -0.05313363 -0.0058917734 -0.36198723 0.18784446 0.17911638 -0.01754374 -0.22229618 -0.0025722187 -0.012685299 -0.06016963 0.038462877 -0.14653425 -0.21219212 -0.18541381 0.0657926 0.057332635 -0.1612193 0.3556253 -0.10783091 0.096712746 0.01404202 -0.12070259 0.068098366 0.13207945 -0.07070545 -0.10995739 -0.13046765 0.08246347 -0.10673189 -0.011442542 -0.012573878 -0.22758058 0.14801873 0.06727106 0.02913532 -0.0012535386 0.04848826 0.02777949 -0.07056044 -0.09571253 -0.0051248204 0.018779226 -0.034276776 -0.1027594 0.023000412 0.074067265 -0.1747765 -0.05713678 0.07143083 -0.031076154 0.00503091 0.09427294 0.04037612 -0.087911025 0.08881715 -0.05543156 0.053061962 -0.046959903 0.115237445 0.026909113 -0.05463481 0.14389437 0.022375729 -0.12998629
TGC 0.21041182 0.20224884 0.099485055 -0.09758238 0.06670965 -0.15400265 -0.02096704 0.01563658 -0.11418851 -0.095455565 -0.076089315 0.11415485 -0.12817417 -0.016800974 -0.004307913 -0.113438845 0.014353497 -0.019800493 0.004771369 0.11206697 -0.18216862 0.06328813 0.004653043 0.08115671 0.06438174 -0.039484553 0.102323465 -0.020321574 -0.06928034 -0.11094897 0.013711708 0.0755745 -0.1873333 0.08258397 0.14019993 0.069994345 0.11325849 -0.13502386 0.05574429 0.03394379 0.048487816 -0.13882235 -0.1190051 -0.042667627 -0.06284816 -0.08220952 -0.11124555 0.12739737 0.06646861 -0.04455211 -0.10695268 -0.04493708 -0.055119615 0.0515952 -0.11878573 -0.011079541 0.11556445 -0.07976915 0.068903044 -0.044317704 0.15894032 -0.040733874 -0.013952017 0.10172222 0.049159937 -0.017783267 -0.045010675 -0.097264156 0.03806448 -0.12743007 0.009775647 0.06596499 0.05582338 0.03508479 -0.15877683 -0.038313176 -0.053103108 0.0006488732 -0.06549878 -0.036550302 0.08746738 0.01092623 -0.07800901 -0.04543219 0.05645282 0.07800752 -0.102470994 -0.0783188 0.10626858 -0.044058945 -0.035773616 0.036462672 -0.1655061 -0.034644194 0.008104001 -0.009203671 -0.06920668 -0.27877071 -0.00953017 0.030608756 -0.0012573515 -0.100727156 0.18478788 -0.11834126 0.07895357 -0.0855928 -0.08404728 0.090489015 0.14915983 0.2197956 -0.025832245 0.028672082 -0.07601309 -0.028997898 0.016337259 0.06537872 -0.12575759 0.019220829 0.0027002096 0.055087976 0.10489444 -0.08207279 0.080151305 0.12399501 0.020019105 -0.0026474425 -0.098785095 -0.05463642 -0.07701309 0.010147206 -0.07154976 -0.09936024 -0.112896666 0.054030485 0.09577555 0.061417874 -0.25058863 0.18257551 -0.019796858 0.14372447 -0.177798 0.014568116 0.06277255 0.22784702 0.16062284 -0.07601636 -0.06431767 -0.039843015 0.2539939 0.05617345 -0.07305203 -0.0066745323 -0.07089706 -0.03623867 -0.00027330432 -0.079277515 -0.07480179 -0.02859861 -0.05070271 -0.14873134 0.14822404 -0.08395034 -0.14848764 -0.019346254 0.006378702 0.16774897 -0.168426 0.2670248 -0.31443384 -0.12468762 0.20314564 0.10023386 0.04506101 -0.037213035 0.16691044 0.1076824 0.1169157 -0.16535369 0.085602455 -0.17228374 0.006497783 -0.08508003 0.019537926 0.014020724 -0.043388147 -0.10757739 -0.09286169 -0.009452449 -0.0897891 0.19461977 0.018309312 0.09389496 0.3319177 0.13072455 -0.034520287 -0.1994969 -0.1521684 -0.044714194 -0.22027114 -0.18606107 0.39542368 -0.029274361 0.1313386 -0.20151411 -0.061374784 0.16968082 0.055918694 -0.113582574 0.024685893 -0.12747939 0.026478792 -0.15620562 -0.06084737 -0.07478249 0.20946254 0.07611557 0.13772929 -0.057539087 0.09366184 0.049710896 -0.030537384 -0.049430642 0.08709918 -0.096150056 0.041336484 -0.064944275 -0.027116587 -0.11977875 0.21987613 0.04936729 0.07060584 -0.019166945 -0.0728776 -0.02906698 -0.05268969 0.068709664 -0.087572336 -0.02337342 -0.34148353 0.13115612 0.30441454 0.02737108 -0.24344158 0.011799506 0.02990532 -0.07475776 0.06808934 -0.075287156 -0.2519526 -0.18427518 0.09353687 0.15951629 -0.10373398 0.24601714 0.03698697 0.026622271 0.08511974 -0.09117154 0.06273781 0.09041266 -0.09746667 -0.06245334 -0.15796867 0.04105797 -0.08306205 -0.03543589 -0.0057204706 -0.013054601 0.18121168 0.13660361 0.016498191 -0.042544622 0.18740253 -0.071629934 0.029762318 -0.066917606 -0.1976036 0.04470141 0.029461307 0.014561645 0.08138306 0.11944341 -0.18433431 -0.034177493 0.077891 0.0555829 -0.032937806 0.1795032 0.042537134 -0.07294935 0.086943544 -0.074729525 -0.0037463477 -0.07826548 0.10160831 0.0678757 -0.013987439 0.13938265 0.09355301 -0.013501116
AGC 0.102448665 0.25276262 0.1461104 -0.04188684 0.12919508 -0.19252893 0.039735284 -0.003885133 -0.02170063 -0.039910458 -0.075509205 0.094318256 -0.1163489 -0.037045795 -0.010608993 -0.1277821 0.02499221 0.031380825 -0.016564164 -0.022039661 -0.06692658 0.038877625 0.0068939393 0.0504731 0.10479575 -0.028463585 0.09224347 0.0066719735 -0.004049182 -0.083007336 -0.02437285 0.013242943 -0.24919416 0.081761345 0.14178467 0.0044704503 0.07645323 -0.1663634 0.021837372 0.02322139 0.07199963 -0.082949094 -0.06084146 -0.028214829 -0.053239074 -0.077822484 -0.16640317 0.16956063 0.083098754 -0.07832175 -0.055018373 -0.027944412 -0.075939044 0.07840288 -0.08909416 -0.034511216 0.08376735 -0.08612658 0.01724014 -0.037286606 0.13510297 -0.07779662 0.045167513 0.09694921 -0.024881423 0.017704146 -0.07928399 -0.11007561 0.06477789 -0.2014262 -0.0041420376 0.04627437 0.0859919 -0.03495506 -0.093962565 0.019712994 0.01895036 -0.013491903 -0.11869874 -0.03900475 0.13775526 0.09148451 -0.091687165 -0.01761089 0.037222344 0.06757659 -0.095116235 -0.10440416 0.07766543 -0.026824322 -0.050557 0.008803785 -0.087433204 -0.0006421634 -0.0039873123 -0.07117711 -0.010395388 -0.2703832 -0.048852067 0.014448608 -0.051759362 -0.060766783 0.17815521 -0.05250827 0.12106191 -0.06036975 -0.07520834 0.024818182 0.15549774 0.24283764 0.026537623 -0.09102096 -0.0014809711 -0.08708576 0.07400081 0.041417412 -0.13575466 -0.027908964 -0.015453645 0.022453547 0.14527048 -0.022652404 0.11131537 0.0824463 0.008137072 -0.0026502353 -0.1161496 0.028570201 -0.13461098 0.018509805 -0.11608661 -0.08770001 -0.13474093 0.014819316 0.11852842 0.15532652 -0.24611895 0.13385414 -0.049472358 0.08550192 -0.114640065 0.041990716 0.047032546 0.22781062 0.10468962 -0.05853898 -0.031892084 -0.031560864 0.24290684 0.09939303 -0.073739946 -0.06627933 0.00046799865 -0.02953795 0.023232112 0.022424052 -0.037615158 -0.050096713 -0.08937262 -0.10635175 0.13776556 -0.10791652 -0.19569267 0.02173405 -0.053171925 0.27123794 -0.24111547 0.2559692 -0.30990615 -0.156077 0.11329562 0.11008893 0.020418508 -0.041685257 0.25381348 0.134881 0.115722165 -0.12033938 0.044411898 -0.1617703 -0.015854886 -0.09097985 0.018629482 0.024159083 0.027949197 -0.10844713 -0.062337466 -0.015352781 -0.13674858 0.11293042 0.0055574006 0.026423225 0.27110922 0.1725602 -0.06524764 -0.20398523 -0.09771184 -0.13190183 -0.13978061 -0.23912382 0.35435167 -0.0030507701 0.085107125 -0.25397125 -0.046350665 0.15149067 0.15798698 -0.079214774 0.033208854 -0.0859499 0.025036814 -0.107048936 -0.07696378 0.01963842 0.19419241 -0.021413429 0.175566 -0.068933554 0.12023897 -0.04179127 -0.03294187 -0.04728314 0.1156404 -0.08368584 0.058062904 0.00640265 0.024982316 -0.15615895 0.23281196 0.015592908 0.03986946 0.00042183272 -0.0119589055 -0.06612639 -0.081854925 0.062473517 -0.0986338 -0.021559505 -0.31817096 0.1873653 0.26795545 0.026477557 -0.23059008 0.042312045 -0.0076960498 -0.04522777 0.06658699 -0.051293425 -0.20536807 -0.21343589 0.1245838 0.123622164 -0.14916407 0.18332794 0.023015333 0.081216075 0.13981017 -0.05031504 0.110068835 0.049135856 -0.12648197 -0.13142626 -0.18679024 0.07043369 -0.087067224 -0.03255966 -0.08288197 0.015484853 0.20508912 0.03572492 -0.0042474186 -0.054678354 0.1263233 -0.07766385 -0.006702985 -0.06376313 -0.110667184 0.039413594 0.04769645 -0.014084058 0.03809491 0.104154 -0.20811065 -0.044271328 0.018866392 0.08831612 -0.059426993 0.17777024 0.04045787 -0.09152377 0.10062015 -0.085010715 0.027905216 -0.04202262 0.078956775 0.1086229 0.003150463 0.09117208 0.015576218 -0.0700102
TGG 0.24717078 0.22615014 0.17776354 -0.0740459 0.05668664 -0.17988488 0.050734367 0.005279694 -0.11547621 -0.097930364 -0.022071626 0.066346884 -0.022991078 0.043241818 0.023514297 -0.029195955 0.12282316 0.0105657065 -0.03836288 0.065295324 -0.22204842 0.056929383 -0.07008757 0.12198099 0.09112869 -0.09148057 0.018018331 -0.00903801 -0.034077663 -0.120282635 0.046345674 0.063021615 -0.16020302 0.09722514 0.11138862 0.037740845 0.09583668 -0.09496677 -0.002867392 -0.0054609436 0.05401596 -0.13026974 -0.030237691 0.0008481741 -0.048676286 -0.0315563 -0.12215793 0.18251519 0.10063929 -0.049100347 -0.068709984 -0.047737937 -0.067704916 0.11244844 -0.09731198 0.07814891 0.025731785 -0.1137854 0.075637765 -0.07633128 0.12458523 -0.0485668 -0.06401743 0.10009683 0.078885965 -0.09945256 -0.028456483 -0.08374454 0.06121574 -0.14432406 0.036071215 0.10611439 0.061279297 -0.05094627 -0.13434686 -0.11591155 -0.051183853 0.0926653 -0.08355965 0.0009871891 0.13114582 0.03893673 -0.073054545 0.050158262 -0.011188643 0.13462093 -0.12374411 -0.09239818 0.10746984 -0.02586421 0.02536777 -0.013511449 -0.123073325 -0.080083646 -0.017874751 -0.039302927 -0.074439146 -0.24051721 0.004728828 0.08031646 -0.027411053 -0.036949556 0.19015117 -0.038893215 0.066646956 -0.03476003 -0.088921 0.09144081 0.12057306 0.16614762 -0.013347013 -0.012703283 -0.08787918 -0.03460068 0.063140444 0.02583715 -0.082024395 0.07277576 -0.04208249 0.04682841 0.1584524 -0.04824247 0.07147331 0.099857174 0.025601897 -0.020123227 -0.07357027 -0.042297576 -0.07322902 0.030681597 -0.06299477 -0.10099908 -0.17867658 0.023176322 0.094649136 0.027698722 -0.31508532 0.18955195 -0.016182134 0.1739345 -0.16846623 -0.013472855 0.0060385293 0.21071039 0.057242863 -0.056375265 -0.096421115 -0.08576225 0.25457162 0.017557757 -0.057308633 -0.0630189 -0.030909786 -0.02479211 -0.085162595 -0.03896451 -0.003941255 -0.0062331134 -0.05673824 -0.10502291 0.08803419 -0.062464382 -0.12168999 0.024189234 -0.053262983 0.27273205 -0.19306168 0.27208015 -0.267905 -0.17403719 0.15569524 0.16027178 -0.0140294 -0.06491043 0.21804728 0.03830942 0.015645867 -0.13650005 0.07938642 -0.09727596 0.008946734 -0.14237517 -0.011960983 -0.05429289 -0.015204242 -0.1387968 -0.08133582 0.021128979 -0.06633515 0.15449664 0.026060088 0.018230438 0.27884728 0.13498522 -0.04371343 -0.248173 -0.1369555 -0.12719397 -0.17625152 -0.15196466 0.37435967 -0.043986235 0.035935197 -0.21841028 -0.061638255 0.13585223 0.10960926 -0.06405999 0.048659142 -0.06433688 -0.062002208 -0.11432222 -0.01737916 -0.039465997 0.1436959 0.10180744 0.119306244 -0.08201068 0.07183288 0.027129935 -0.02083075 -0.053856544 0.06251327 -0.07810787 0.040370766 -0.07012012 0.02517627 -0.04794642 0.30755773 0.060219936 0.04511889 0.04030066 -0.038886487 -0.058778577 -0.1449776 0.08068458 -0.049636062 -0.062444117 -0.41586384 0.12572105 0.2609287 0.041617326 -0.31248528 0.06433815 0.024074411 -0.057733327 0.06597955 -0.07546902 -0.20063713 -0.13544326 0.036026835 0.15752628 -0.1505475 0.23343931 0.05060138 0.09226305 0.05603858 -0.0321708 -0.0038719773 -0.010637413 -0.091106735 -0.08260176 -0.17042252 0.043729883 -0.09330045 -0.06906462 -0.05405489 -0.019826991 0.12952057 0.1202075 0.06950252 -0.06543197 0.15332463 0.033877365 -0.041008003 -0.0950892 -0.122737475 0.037893414 -0.0053750104 0.033424027 0.028411558 0.09011422 -0.22181258 -0.05048314 0.07321109 0.052580576 -0.065492585 0.17059349 -0.0028013843 -0.08188367 0.11720203 -0.0610488 0.09085514 -0.110706106 0.110074945 0.032726612 -0.005836887 0.121006824 0.011892797 -0.026360929
AGG 0.16688141 0.24124575 0.07472322 -0.06555022 0.09849947 -0.26383907 0.027211238 -0.043447547 -0.13843279 -0.12205206 -0.015382358 0.07752531 -0.018689018 -0.018176708 0.06396831 0.0077131134 0.10009246 0.030963335 -0.056650538 0.027056936 -0.18308067 0.114675894 -0.09480132 0.0757461 0.095667176 -0.07513692 0.06915847 -0.08681912 -0.054660108 -0.015763061 -0.00890673 0.022613082 -0.17419377 0.041942663 0.15273891 0.02724559 0.050708823 -0.15896496 -0.006741541 0.008399487 0.04814611 -0.16587229 -0.018066611 0.023539033 -0.005653143 -0.05397863 -0.18966779 0.22569093 0.08348327 -0.071184345 -0.08054803 -0.025240729 -0.06949235 0.11949631 -0.13862762 0.043177452 0.046287622 -0.13585772 0.11443823 -0.019107623 0.12183634 -0.020935042 -0.020727566 0.1385098 0.026162148 -0.0684638 -0.008015479 -0.1324644 0.10642526 -0.21684767 0.06399776 0.112365045 0.08775274 -0.06847971 -0.10067569 -0.071543455 -0.05279829 0.055227347 -0.14548878 -0.010920831 0.19259392 0.10089685 -0.078237556 0.022175994 -0.013022542 0.15672721 -0.1342526 -0.07036054 0.0070421016 0.0031374097 -0.03513966 -0.050062984 -0.17210774 -0.03968433 0.02614127 -0.04790095 -0.07956312 -0.19143894 0.023861816 0.0031075308 -0.051971164 -0.055241186 0.18958686 -0.07565334 0.08956963 -0.05837614 -0.021774786 0.042800803 0.101949 0.18569712 0.040453315 -0.10964693 0.0015677555 -0.058362223 0.072719455 0.041241985 -0.051001113 0.14001098 0.0077246535 0.03450367 0.14144567 -0.05651466 0.08966051 0.12035494 0.0075678313 -0.038107138 -0.09591162 -0.043879714 -0.08969748 0.10256568 -0.10711219 -0.14847922 -0.1827799 0.018094838 0.03472833 0.05403849 -0.3208919 0.15129438 -0.05986751 0.08048349 -0.16178462 -0.07255763 -0.019229889 0.19260828 0.066745274 -0.04125244 -0.09035182 -0.066319 0.2557422 0.10200024 -0.10202211 -0.05181287 -0.017046103 -0.050475128 -0.03364912 -0.010374205 -0.028559234 -0.06253903 -0.027491143 -0.08191388 0.12354231 -0.12846972 -0.11700885 0.021468537 -0.017310143 0.2260858 -0.17731312 0.27582407 -0.20815007 -0.1070541 0.037821822 0.15111756 -0.0111344205 -0.03486349 0.21238653 0.10957163 0.08664804 -0.09250586 0.047433276 -0.08710073 0.08416625 -0.1540077 0.07567827 -0.10045129 -0.009909357 -0.09983134 -0.08039631 0.0410512 -0.11082227 0.10645223 0.037019644 -0.010393654 0.19494168 0.117251284 -0.02627434 -0.23250797 -0.096442595 -0.16402245 -0.16467246 -0.22022346 0.34318045 -0.022606526 -0.003359454 -0.17076237 -0.092283286 0.1369041 0.15799925 -0.04918533 -0.014179336 -0.0017582348 -0.06985568 -0.09003786 -0.05696255 -0.02346244 0.14389896 -0.005255035 0.17318878 -0.1152486 0.14788933 -0.021302253 -0.034986682 -0.032190084 0.11156939 -0.07560045 0.0698259 -0.07035153 0.10181529 -0.13822278 0.30438095 0.0034779992 -0.09201501 0.07068997 0.016332421 -0.015030162 -0.074801646 0.08254157 -0.05021738 0.01399569 -0.33612877 0.13185307 0.2278971 0.06477404 -0.3013809 0.0075504193 0.057216763 -0.059488736 0.027813945 -0.100884065 -0.23791967 -0.26163617 0.14973584 0.13117974 -0.13272521 0.2526718 -0.043263674 0.088900805 0.13103518 -5.7297093e-05 0.06690731 0.01924485 -0.059478607 -0.11763062 -0.1763699 0.05964664 -0.123795256 -0.10736149 -0.14363427 -0.04210605 0.11268425 0.053045623 0.035732124 -0.042393003 0.09818424 0.0039354414 -0.05724935 -0.038972188 -0.041926917 0.05240075 -0.05332848 -0.039652314 0.0490683 0.07182067 -0.18954773 -0.0048513883 0.065381356 -0.0057708877 0.020862281 0.18519437 0.096697986 -0.082525134 0.06522197 -0.061229628 0.036558986 -0.078909926 0.087352715 -0.010605727 -0.07540172 0.12137928 -0.08154728 -0.030216174
ACC 0.05155182 0.2234145 0.051984992 -0.09815281 0.16764665 -0.15258162 -0.017342465 0.07350486 -0.047135293 -0.14203152 -0.022275189 0.08708559 -0.17031513 0.062273804 -0.059021093 -0.113193884 0.034611445 0.10186137 0.033477306 -0.018361177 -0.12476921 0.028826611 -0.013374433 0.15861885 0.12729757 -0.085185684 0.04062421 0.02836895 -0.035334844 -0.118621044 -0.023800543 0.040404353 -0.277003 0.0123982085 0.25638166 0.07099562 0.093770385 -0.13933907 0.02655648 0.039456505 -0.032739963 -0.10341259 -0.043869223 0.038157173 -0.07381751 -0.09219054 -0.12235783 0.23023413 0.18048294 -0.022926454 -0.088864006 -0.016135393 -0.02775824 0.048311543 -0.13265768 0.0057822126 0.1025844 -0.08145889 0.050848175 -0.031683836 0.14962278 -0.013538165 -0.01868282 0.19092444 0.05483004 -0.015828371 -0.023970148 -0.034009833 0.07154865 -0.14608507 0.032036033 0.08769364 0.09379269 -0.026099613 -0.07020055 -0.03988907 -0.09279629 0.015395062 -0.16676809 0.0022177866 0.118273124 0.03564363 -0.113176264 -0.0066697258 0.028176596 0.07645695 -0.058406062 -0.05925117 0.045140244 0.06021289 -0.021786723 -0.017804699 -0.104834385 -0.020692144 0.022786226 0.004986812 -0.13808116 -0.2427876 -0.0029438224 0.04846849 -0.047831926 -0.16901939 0.1844814 -0.017030682 0.0065012914 -0.009929861 -0.06450338 0.05684677 0.22361232 0.19019 0.0022232533 0.018969877 -0.104367495 -0.06393746 0.028340628 0.09774482 -0.07378892 0.05935209 0.008753709 0.067390904 0.10943855 -0.038517304 0.055259757 0.12775862 0.052361947 0.03776371 -0.06746336 0.0017003587 -0.1983906 0.02725331 -0.1082048 -0.08695572 -0.12057461 0.14445837 0.16077755 0.12493854 -0.22844942 0.14932975 -0.04873932 0.07971521 -0.15379667 0.012550933 0.01318944 0.23826946 0.015550827 0.012267113 -0.03999387 -0.06870671 0.2746931 0.07347477 0.009288957 -0.06675008 -0.03938387 -0.07244785 0.033372138 -0.0539247 -0.034401447 -0.09944023 -0.0045828647 -0.08734373 0.085324414 -0.15540278 -0.19085114 0.012143731 -0.010782055 0.2249658 -0.28833348 0.2361594 -0.22504295 -0.072689295 0.087777086 0.105271086 -0.08147318 -0.017271757 0.18835051 0.13949539 0.16083513 -0.0680033 0.071006574 -0.13528846 0.0066479105 -0.024143385 0.08994196 0.019413667 0.027602758 -0.050293062 -0.019417882 0.012419726 -0.13323526 0.14182262 0.05192885 0.0114848865 0.18358454 0.14290856 -0.05631413 -0.26183143 -0.09505353 -0.09454262 -0.11794941 -0.19406104 0.31302473 0.027100971 0.04681427 -0.19428566 -0.06865013 0.09677773 0.20131288 -0.0610357 0.029648568 -0.1018006 0.022497635 -0.121252164 -0.09666811 0.019405961 0.14347158 -0.022301435 0.14297841 -0.17736077 0.060821142 0.006767648 -0.034587078 -0.045037184 0.083719954 -0.050724152 -0.006046244 -0.057889573 -0.018612726 -0.104418956 0.17485441 0.027317038 0.009939739 -0.004856203 0.02616632 -0.03574506 -0.016880188 0.04933979 -0.08443073 -0.038716853 -0.32977766 0.16620374 0.2458663 -0.02587012 -0.23976673 -0.021017995 -0.042065535 -0.10031847 0.06843699 -0.12412151 -0.2089072 -0.13990185 0.092818245 0.029237896 -0.26485023 0.21372011 -0.061091803 0.07729948 -0.0055731707 -0.121879034 0.040179066 0.109417416 -0.118248954 -0.06852707 -0.17021313 0.056692395 -0.1080373 -0.025749573 -0.03531268 -0.07013418 0.14606547 0.019203782 0.029053321 -0.008922764 0.06311766 -0.01018938 -0.11752689 -0.02308602 -0.06512386 0.042413972 0.011232044 0.060904425 0.011624694 0.122297145 -0.2867255 -0.069390245 -0.006408351 0.03293286 -0.02767211 0.19098507 0.03543461 -0.18034764 0.14081046 -0.10701736 0.038300116 -0.097581506 0.119529195 0.10615241 -0.007907697 0.15076365 0.0011788607 -0.020623455
TT 0.1418733 0.10542684 -0.00037957562 -0.22473018 0.06408734 -0.20755579 0.08019151 -0.118261606 -0.03932545 -0.06757096 0.06549907 0.09273818 -0.10493433 0.04249851 0.09334158 0.019171437 0.104942694 0.03395499 0.012584593 0.035269696 -0.07199325 -0.0044278037 0.029346488 0.07768254 0.11581498 -0.0179901 -0.0024829442 -0.0031556024 -0.021408228 -0.01791668 -0.06389001 0.07103627 -0.14565538 0.07303495 0.07800264 0.021543179 0.07278591 -0.12745273 -0.015919996 0.02879001 0.06086062 -0.11498773 -0.08249274 0.023475276 -0.037398238 0.004434241 -0.094794616 0.04698299 0.13375968 -0.0465725 -0.06347842 -0.07419348 -0.087734155 0.08661139 -0.14771348 -0.08247994 0.008055806 -0.093362726 0.040771384 -0.048661325 0.077812366 -0.0846667 0.01314256 0.08649969 0.004610343 -0.10094115 -0.028444462 -0.03020566 0.08629777 -0.1438636 -0.050111037 0.1512385 0.146192 -0.013295544 -0.19205724 -0.08778042 -0.07340758 0.03651877 -0.08066868 -0.012522862 0.05182537 0.045546506 -0.09125967 -0.0021974114 0.04994826 0.16188256 -0.12074407 0.03498419 0.06948032 -0.044827335 -0.07542741 -0.008324186 -0.14863299 0.0147754885 0.013696432 0.025602303 0.0270599 -0.13509935 -0.05028062 0.014758825 -0.059837103 -0.057397917 0.13101964 -0.042421136 0.05573927 -0.018747011 -0.066297375 -0.009283251 0.0051505812 0.13921416 0.06366027 -0.04557922 -0.16270365 -0.04482328 0.08513665 -0.040557835 -0.0034545262 -0.0129886335 -0.020536449 0.029405568 0.077845335 0.0022150294 0.14201513 0.05813004 0.029648729 0.0114200115 -0.027859058 0.0002623189 -0.23576768 0.0064244536 -0.04572981 -0.08862143 -0.11810406 0.070952006 0.10790472 -0.011347228 -0.28237998 0.14890291 -0.008561326 0.18715122 -0.1429899 0.026259873 0.03588287 0.1827568 0.027129121 -0.0023018254 -0.05797312 -0.037703887 0.1636205 -0.030898226 -0.037649844 0.010042637 -0.011199806 0.009551663 -0.0013877286 -0.08164292 -0.040482655 -0.06385059 0.028367063 -0.13497876 0.11784148 -0.09689445 -0.1159599 -0.019083394 -0.037085373 0.2370282 -0.14792147 0.25765556 -0.3374804 -0.06768945 0.15938051 0.15625742 -0.07218242 -0.019439392 0.15944771 0.003635009 0.05503054 -0.111375876 0.021583335 -0.16624148 -0.06345443 -0.08477851 0.038790226 0.042627692 -0.079484135 -0.0019726488 -0.09761354 0.016398285 -0.07747295 0.095495276 0.04587262 -0.0057583386 0.14787501 0.13074845 -0.025270768 -0.16161287 -0.12730806 -0.108285666 -0.057344317 -0.17661756 0.17468387 -0.011815097 0.061324105 -0.19418874 -0.08179441 0.13539654 0.114083834 -0.070394024 0.015257516 -0.023770908 -0.1393781 -0.03307059 -0.09606132 -0.049249887 0.1150236 0.0269937 0.012467597 -0.059970167 0.06603292 0.04175302 -0.039127134 -0.07203407 0.1083068 -0.10520278 0.07908434 -0.067489095 -0.0471664 -0.2008643 0.2813357 -0.022399714 0.09228636 0.0010468694 -0.037013188 -0.08646414 -0.08122733 0.04882734 -0.124486476 0.021695098 -0.42281383 0.1752761 0.23112062 0.028729923 -0.18871786 0.0030335586 -0.035134036 -0.011088689 -0.11124495 -0.12322174 -0.24032463 -0.19016106 0.04140458 0.11828942 -0.15306693 0.26453224 -0.0025513703 0.029674087 0.10554295 -0.055088468 0.06094189 0.14836517 -0.16261676 -0.14013916 -0.18490775 0.13267443 -0.16002348 -0.0016356441 0.0025334093 -0.013204432 0.19273883 0.20336002 0.02334353 -0.069762364 0.113227434 -0.12667297 -0.052841797 -0.05008616 -0.087808676 0.11232947 0.029634662 -0.007653412 0.028802924 0.112173915 -0.15595192 -0.01763802 0.08013496 0.071062 0.030298935 0.10777859 -0.03384243 -0.03214337 0.14654279 -0.04685635 0.002218393 -0.09930713 0.07281138 -0.023592882 -0.06446462 0.19168012 0.101248786 -0.027293868
AAG 0.15846148 0.25386566 0.12659748 -0.07347018 -0.039573226 -0.2823829 -0.017902257 0.0069851703 -0.036588106 0.020188648 -0.04204119 0.107657604 -0.08100829 -0.014009254 -0.0363156 -0.081325255 0.08740526 -0.00976118 -0.0064673764 0.0041836537 -0.05391884 0.068730764 -0.0032469886 0.17239831 0.02913284 -0.09476797 0.09502019 -0.11015221 -0.13365641 -0.026232975 -0.021391127 -0.058026902 -0.15700851 0.013429915 0.17271625 0.008458444 0.025418196 -0.21719821 0.05160994 0.06261536 0.042570233 -0.09523116 0.020107064 0.0025776199 -0.008445246 -0.0022102594 -0.13603903 0.14673266 0.046017785 -0.028170671 -0.027153177 -0.050989337 -0.03474049 0.08248647 -0.19209512 0.05063394 0.04961988 -0.16328172 0.14129773 -0.049074896 0.10919023 -0.035751905 -0.028622184 0.094986565 0.06964905 -0.12521431 -0.059434056 -0.08679838 0.06917173 -0.21599935 0.013084003 0.14014758 0.16128226 -0.089782715 -0.109660625 -0.083171025 0.094658576 0.011126161 -0.19278479 0.020602789 0.15242831 0.12899779 -0.07131956 0.008871385 -0.013836418 0.06551033 -0.08989454 -0.016095791 0.008731999 0.042724065 -0.07306879 -0.06623872 -0.106423326 -0.004853419 0.060249906 -0.06287267 -0.03149983 -0.16357152 -0.08431179 -0.0676995 -0.051437378 -0.10184566 0.11371899 -0.015534512 0.12577881 -0.02618741 -0.044124465 0.031578284 0.13869514 0.20973979 0.057496402 -0.12580831 -0.06047208 -0.059295923 0.093448825 -0.048046675 -0.023094902 0.077758245 -0.05379355 0.04287485 0.20193855 -0.06977753 0.12891859 0.010089308 0.006983757 0.020617554 -0.10828262 0.05153954 -0.14551263 0.053755935 -0.22820078 -0.15213172 -0.100922756 0.0024725455 0.084392026 0.14403005 -0.18710718 0.16177809 -0.050670233 0.09508284 -0.17920788 -0.030836735 0.055843387 0.23176132 0.1386458 0.015309334 0.026492745 -0.019964559 0.23164229 0.11636751 -0.016193628 -0.045413613 -0.13144876 -0.06946262 -0.008260233 -0.047026176 0.022125443 -0.05431894 -0.086779475 -0.07285779 0.1039123 -0.09647377 -0.15498553 0.0622366 -0.024394274 0.19117644 -0.16609767 0.29245064 -0.21336818 -0.10060198 0.044659667 0.15384558 -0.06919261 -0.04262685 0.20693901 0.11065514 0.08171888 -0.13397768 0.06483989 -0.12002937 0.013041385 -0.11945053 0.06125256 -0.0625301 0.00656913 -0.10205065 -0.094839334 -0.016450644 -0.0836581 0.14060357 0.052982755 -0.02704806 0.23961814 0.107187085 -0.031722512 -0.1536523 -0.08419473 -0.10593029 -0.06504593 -0.25677243 0.32492492 0.034679312 0.028739044 -0.3010044 -0.0981835 0.1421207 0.20630868 -0.10606052 -0.00710584 -0.04462123 -0.050131638 -0.124900274 -0.03150363 0.014664897 0.09079452 -0.018909607 0.14881146 -0.1017471 0.18130958 -0.016627282 -0.11971451 -0.033737574 0.15924487 -0.09645418 -0.03572351 -0.047238287 0.026285725 -0.0019427197 0.31935883 -0.0069595748 -0.0186723 0.037763257 0.0014374937 -0.021228602 -0.09036561 0.07930649 0.03544422 -0.1288697 -0.3908123 0.19826032 0.19775513 -0.0054189307 -0.32149538 -0.05977834 -0.006957137 -0.08636616 0.024967398 -0.16387682 -0.28530073 -0.1672277 0.13108504 0.10148091 -0.09668977 0.22937144 -0.040682416 0.014502355 0.10012514 -0.038916785 0.06126168 0.0012755607 -0.09912676 -0.07944137 -0.16150059 0.11209246 -0.057879537 -0.050111346 -0.09911508 -0.15843238 0.12480418 0.038640983 0.06552323 -0.057458453 0.16645916 -0.055868737 -0.09403725 -0.106812514 -0.02724123 0.016647756 0.032391872 0.025426779 0.10043061 0.08606325 -0.10813183 -0.08549956 -0.009365423 0.055288535 -0.015002923 0.15279976 0.08607562 -0.12013435 0.036803193 -0.05629019 0.054501873 0.01185596 0.036682393 0.008639915 -0.042232197 0.0978554 0.022625538 -0.01079458
TCC 0.17246437 0.18218936 0.13123117 -0.10815181 0.19559138 -0.20685486 0.005051647 0.04367767 -0.10725785 -0.20432839 -0.010383005 0.09271189 -0.1412415 -0.040826242 -0.0635669 -0.07395726 0.114542775 0.04991581 -0.033038888 -0.0115703 -0.111612014 0.022183554 0.007887327 0.15558733 0.13530938 -0.09762069 0.021930525 0.032531228 0.031530585 -0.16259326 0.032838516 0.13988908 -0.28658745 -0.0036414862 0.17520618 0.032789655 0.096808374 -0.116964996 0.026877793 0.0614686 -0.027930379 -0.10135419 -0.07283477 0.021647232 -0.04489861 -0.13442598 -0.1295816 0.2111539 0.19316772 -0.046592616 -0.03657186 -0.04035174 -0.026709097 0.038159102 -0.120135665 -0.009083943 0.12237118 -0.08691534 0.012352939 -0.03884552 0.14251396 -0.07081912 0.036065202 0.20343152 0.036342144 -0.04499122 -0.010087664 -0.049444847 0.092675634 -0.1276414 0.058199584 0.10880629 0.044099193 -0.03858573 -0.12277981 -0.008678811 -0.08380103 0.039388895 -0.14671683 0.07057791 0.076189674 -0.010595475 -0.09395095 -0.021011522 0.044481993 0.14914925 -0.04723859 -0.100666456 0.083555594 -0.00860978 -0.02106898 -0.035588734 -0.15365253 -0.04394749 0.036808338 0.0065426975 -0.098971285 -0.28599864 -0.029886212 -0.0040808064 -0.048943486 -0.097341284 0.2103618 -0.037389074 0.007864066 0.022241848 -0.06464764 0.07410158 0.177251 0.14711313 0.04787646 0.068159305 -0.16457841 -0.05171997 0.084114715 0.09667093 -0.103403434 0.043231048 0.010440146 0.03362245 0.104348764 -0.012090956 0.036816325 0.1109612 0.019080145 0.006921538 -0.13139987 0.021739695 -0.16454637 0.048511535 -0.06755044 -0.10031792 -0.14520296 0.032392297 0.19867177 0.08656601 -0.2783263 0.18542776 -0.05673066 0.13990079 -0.1744852 0.03958834 -0.012353978 0.26115894 0.01074361 0.008644206 0.022463778 -0.0657086 0.26042697 0.105245784 -0.03330788 0.007095801 -0.003985524 -0.030609624 0.022172425 -0.01102393 -0.030586954 -0.082100116 0.030325549 -0.11460454 0.03524318 -0.16128467 -0.19051269 -0.015143548 0.040497966 0.21462129 -0.19918738 0.26757008 -0.21773168 -0.1576982 0.10058044 0.05010009 -0.06701309 -0.105254225 0.22014634 0.06598641 0.1820198 -0.10268665 0.10336484 -0.15009108 0.010255643 -0.023546567 0.010487522 0.055715363 0.013387152 -0.047682874 -0.051420994 0.02372095 -0.09533204 0.08952793 0.025994191 0.06262406 0.16481051 0.12776026 -0.034374952 -0.267085 -0.12539959 -0.05665081 -0.20340557 -0.26391026 0.26773462 0.020223686 0.04805885 -0.14198923 -0.05445489 0.093309864 0.11022813 -0.025725331 0.073279664 -0.14253879 -0.008225107 -0.050409112 -0.10935504 -0.04876588 0.14731145 0.053079147 0.12461371 -0.10644591 0.0970139 -0.028592233 -0.059488516 -0.043873243 0.0694257 -0.017715799 -0.013133203 -0.08195947 0.012673037 -0.062475268 0.2556167 -0.00340959 0.02095236 -0.041977704 -0.032182403 -0.06334599 -0.037302494 0.07173012 -0.09083787 0.024286205 -0.33057818 0.1673052 0.28967375 -0.059031606 -0.21447352 0.057650466 -0.05784389 -0.09120207 0.025653405 -0.122076936 -0.21014698 -0.19308059 0.050645847 0.07044211 -0.23550847 0.30145714 -0.0058198445 0.07385706 0.034206085 -0.06883199 0.060128894 0.103923924 -0.18605791 -0.033766 -0.11070083 0.08299352 -0.07192371 0.002246252 -0.040533654 -0.027635654 0.11032547 0.080524586 0.020020595 0.021963937 0.14084576 -0.012355839 -0.060352325 -0.039311495 -0.14635317 0.12462122 0.07305275 0.009174867 0.009292637 0.1121103 -0.26380712 -0.003140096 -0.03618875 0.06762188 -0.010191515 0.13187326 0.037672002 -0.16342887 0.1146081 -0.12167474 0.040063832 -0.13075244 0.110033736 0.13528554 0.001842635 0.14168426 0.01988204 -0.04990738
ATC 0.09072113 0.17628272 0.099861555 -0.089751616 0.09789634 -0.22636425 -0.004584619 -0.006925583 -0.10276134 -0.14073339 -0.012845512 0.10333534 -0.09525319 0.051549602 -0.024427708 -0.06801418 0.07667179 0.03624628 0.04167652 0.00962575 -0.063264765 0.007443973 0.0156821 0.16121618 0.0886575 -0.027134266 0.048875947 0.0030328545 -0.023772614 -0.0928185 -0.020087872 0.08223115 -0.25169903 0.022955656 0.22285202 0.044201408 0.11684393 -0.16852076 0.04945193 -0.006324019 0.08190094 -0.096123934 -0.023100138 0.027889082 -0.07333966 -0.0674352 -0.10997828 0.18920563 0.18636574 -0.0407302 -0.052691203 7.93093e-05 -0.066565685 0.055912517 -0.09763498 -0.031075409 0.09356509 -0.091891885 0.024932483 -0.027690258 0.110168494 0.011391674 0.004380226 0.158208 0.074476734 -0.11368009 -0.045572303 0.010725225 0.076176286 -0.1380199 0.0417693 0.16328534 0.10589259 0.0039139474 -0.07681264 -0.032906506 -0.046052285 0.059116773 -0.14429478 0.0069522858 0.05427311 -0.008498856 -0.12340225 -0.044455495 0.034334626 0.09357912 -0.05748758 -0.07034809 0.03946055 -0.026289778 -0.06894292 0.026433697 -0.096343584 -0.03238753 0.03445477 0.021820147 -0.062146094 -0.24565642 -0.021953003 0.022493124 -0.021291971 -0.12621127 0.10154833 -0.012408495 0.060304184 -0.026732223 -0.10980414 0.014455284 0.094262615 0.17423415 0.050801974 -0.024535997 -0.042418785 0.00221576 0.08052285 0.0032404661 -0.08531247 -0.016917586 0.016163716 0.075199045 0.13588548 -0.055816393 0.07315379 0.13120592 0.013530374 -0.036046978 -0.04558856 0.049844943 -0.11618396 0.022654762 -0.1712888 -0.06474061 -0.11486132 0.06666606 0.14949207 0.048781425 -0.1583689 0.22010498 -0.049361926 0.12787922 -0.17850658 0.04152898 0.03648273 0.17676918 0.08168747 -0.00775092 -0.044720706 -0.026898894 0.23985298 0.027369592 -0.014982802 -0.011994724 -0.024204811 -0.03630724 0.026130216 -0.022834113 -0.033729464 -0.08623973 -0.0060498887 -0.08193064 0.08014808 -0.18263158 -0.14773393 0.046040688 -0.017313192 0.14232402 -0.14478846 0.25323254 -0.27545422 -0.11062764 0.13286433 0.1342026 -0.116975345 0.024096165 0.19942662 0.1224188 0.12268041 -0.080105714 0.07720668 -0.121861205 -0.0005700759 -0.062347997 0.014919554 0.027052317 0.0020919356 -0.053633988 -0.059121948 0.043482844 -0.067934476 0.122578844 0.03461302 0.02387533 0.20979072 0.097564235 -0.0052496195 -0.27537343 -0.13296182 -0.10022761 -0.11349719 -0.19502017 0.26891533 -0.065005675 0.059061766 -0.22076294 -0.058696765 0.08199049 0.14865173 -0.049178634 -0.0103772115 -0.089993514 0.008207391 -0.1093834 -0.07645108 7.2343006e-05 0.09940441 0.01603599 0.08622188 -0.043307703 0.11126012 0.00019186735 -0.024702718 -0.027918765 0.12568727 -0.07169815 0.035661228 -0.007510411 0.044707622 -0.14833978 0.23990737 -0.015363438 -0.050434094 0.034991384 -0.06596755 -0.053875584 -0.10413841 0.0909003 -0.07113648 -0.03201228 -0.39239612 0.11343152 0.29667813 0.0057279617 -0.2570161 -0.004819904 0.010570867 -0.1095696 0.009280264 -0.1225009 -0.18384586 -0.15477808 0.05017429 0.056384236 -0.20012866 0.291675 -0.0016863218 0.043828495 0.041968565 -0.08965278 0.0709957 0.07209518 -0.13324967 -0.05202987 -0.15690933 0.09329043 -0.118211225 0.0032518336 -0.025993118 -0.09572147 0.10478405 0.11256192 -0.0064302343 -0.032188874 0.13603508 0.0039413827 -0.10813717 -0.008648328 -0.10602413 0.035297822 0.04530608 0.057355974 0.029527733 0.1202184 -0.22555068 -0.07108209 0.014846808 0.025727715 -0.043846034 0.20814088 0.0061429483 -0.16887161 0.06914377 -0.08262134 0.031507798 -0.1260496 0.1312847 0.05339734 -0.0052062445 0.15005948 0.023218622 -0.033890195
TTC 0.1604433 0.10340105 0.043800626 -0.13042791 0.04924151 -0.19253159 -0.0031710693 -0.006729535 -0.07036496 -0.14273693 -0.008401679 0.1141196 -0.121191345 0.02364701 -0.03334378 -0.07172705 0.06841961 0.060597777 0.017690761 -0.031085405 -0.08754226 0.031016639 0.025857225 0.106621645 0.12475351 -0.050057054 0.015854103 -0.018491711 0.012779151 -0.11803354 -0.037809305 0.11401187 -0.23182414 0.0116382325 0.113524094 0.05059445 0.10454916 -0.12282807 0.034316592 -0.033199515 0.060502343 -0.13842174 -0.032328706 -0.023284197 -0.09780908 -0.09662737 -0.12587246 0.14831778 0.1609009 -0.047884665 -0.038482003 0.0065411 -0.07258509 0.018622557 -0.12768155 -0.05704593 0.09591404 -0.07483869 0.011967604 -0.015487449 0.16419886 -0.023194509 0.034254007 0.16578846 0.053964853 -0.10767126 -0.011526896 -0.009928397 0.13683225 -0.12967825 0.022751536 0.12888293 0.115072094 -0.00780562 -0.11642085 -0.020552294 -0.030954054 0.04813995 -0.10787196 -0.0062346286 0.06841377 -0.019262638 -0.09237439 0.021945238 0.05709621 0.11460185 -0.06697736 -0.06204639 0.045296002 -0.04130078 -0.038725276 -0.009807237 -0.17170031 0.007368871 0.04444124 0.012715022 -0.04792073 -0.29711938 -0.030729873 0.04894318 -0.046399493 -0.095546775 0.13226792 -0.0043707406 0.08124854 -0.018993344 -0.119532414 0.011480962 0.10400615 0.14077386 0.037888307 0.000118289674 -0.07780964 -0.077928744 0.059274834 0.04458613 -0.09520541 0.009302659 0.026615458 0.06076731 0.108498916 -0.06757874 0.10902365 0.09232553 0.026659267 0.0321378 -0.07329188 0.002651206 -0.11170537 0.058660187 -0.10313221 -0.08549597 -0.1253021 0.013954128 0.1664289 0.057708155 -0.21356858 0.22737049 -0.04713211 0.13681541 -0.23243502 0.039344933 -0.0050214147 0.21297397 0.024847226 0.025392804 -0.00857008 -0.054366317 0.23869501 0.027393537 -0.02111331 -0.027070867 -0.0059770006 -0.029157877 0.0032599824 -0.03277198 -0.049134027 -0.06671437 0.02058501 -0.10751404 0.05124706 -0.17109947 -0.14980043 0.02503114 -0.004233786 0.1571527 -0.12383016 0.2598932 -0.2645785 -0.058945637 0.16505192 0.12101727 -0.08307682 -0.034119964 0.20836507 0.0732412 0.14164375 -0.08394226 0.07652668 -0.16489787 0.012632915 -0.06910079 -0.011507375 0.00031171527 -0.01574559 -0.05775092 -0.043575864 0.014270731 -0.011546408 0.13215919 0.029625459 0.048114736 0.17009628 0.115803726 -0.0011516298 -0.23989847 -0.08999987 -0.09773559 -0.15377314 -0.23197028 0.27632573 -0.028129816 0.09227835 -0.18400478 -0.06384712 0.08392126 0.07148647 -0.054833412 0.06407021 -0.09941047 -0.0118633825 -0.052672062 -0.07343333 -0.06963638 0.15248744 0.014564811 0.080888934 -0.08510106 0.052740116 0.007090509 -0.06983876 -0.05490652 0.12434002 -0.09175624 0.009048326 -0.038166437 0.022833636 -0.108392514 0.21952537 -0.032904267 -0.04034102 -0.004153394 -0.08775904 -0.07991176 -0.111426964 0.09345562 -0.046658218 -0.02207291 -0.39401177 0.14467062 0.2987137 -0.028530871 -0.2372582 0.02987848 -0.0443167 -0.10946945 -0.033191722 -0.10378729 -0.21940732 -0.17277098 0.08109922 0.07337769 -0.1912628 0.29689655 0.033273336 0.056247395 0.047595996 -0.045741115 0.08969327 0.1233962 -0.2022538 -0.019663526 -0.094690956 0.13275169 -0.08115333 0.012713526 0.03535053 -0.024840752 0.06265463 0.1500975 -0.013311608 -0.0009504216 0.15267472 -0.01137008 -0.09296642 -0.020077858 -0.099171504 0.12043749 0.042697847 0.03942511 0.019582715 0.16216262 -0.23460317 -0.055443335 0.023931544 0.048567872 0.0016447755 0.12799951 0.043317616 -0.14998838 0.08792431 -0.07109444 0.004506401 -0.07768852 0.11586078 0.0700613 0.0014079298 0.15399764 0.042458124 -0.035048705
ATG 0.06556516 0.22656563 0.11158266 -0.08457126 0.06468548 -0.21703425 -0.022137253 -0.007538029 -0.06322123 -0.07702541 0.02163417 0.12576985 -0.025570989 0.025882278 -0.033694804 0.03351048 0.09254563 0.00955958 0.048798766 0.06926864 -0.08347421 0.012119328 0.0015936579 0.114918336 0.053291094 -0.09205508 0.013069595 -0.05752089 -0.06772359 -0.06777407 -0.021342482 0.035344694 -0.13656506 0.07756019 0.118618414 0.034331184 0.095388584 -0.13276091 0.014259969 -0.018242886 0.1382545 -0.07811872 0.07391315 -0.004740238 -0.023493972 -0.04736873 -0.07386833 0.14432994 0.13515665 -0.081802316 -0.013848492 -0.048242707 -0.050534647 0.09064092 -0.12024848 -0.014573472 -0.025775025 -0.13684164 0.045523435 -0.041311562 0.039929204 -0.050683685 -0.065668106 0.13238277 0.042617083 -0.12244967 -0.013034531 -0.1342101 0.09517989 -0.22145982 0.025261147 0.12671725 0.109599896 -0.062149663 -0.15213148 -0.10873812 -0.006697246 0.007063287 -0.08152764 -0.01808949 0.098167025 -0.0060161897 -0.09419454 0.023176601 0.026384609 0.10875923 -0.10724008 -0.019516094 -0.012324594 0.014467529 -0.009368862 -0.038780306 -0.13125153 -0.06700669 0.08266374 0.019106463 -0.08170671 -0.18202615 0.02913642 -0.0047661066 -0.068581715 -0.08712191 0.16858704 0.011515404 0.09776825 -0.037175007 -0.0115768565 -0.0002344506 0.049061436 0.1605248 0.057463653 -0.08484193 -0.06454229 0.010453501 0.05308785 0.01888086 -0.051213972 0.076592766 -0.04992783 0.020053102 0.13076544 -0.037783537 0.06961351 0.1082694 -0.019760659 0.004351318 -0.040838122 0.020713774 -0.17717335 -0.028924568 -0.15855058 -0.14745747 -0.10613818 0.048023682 0.08969717 0.04633648 -0.2597594 0.18234944 -0.033074312 0.094336934 -0.16190764 -0.018399162 0.021682382 0.2126148 0.06684917 0.027512908 -0.054290645 -0.03337225 0.200922 0.03713848 -0.028482573 -0.02741858 -0.051926143 -0.044046957 -0.039704468 -0.0858727 -0.001751508 -0.059799023 -0.057296652 -0.09439039 0.025470326 -0.095984876 -0.09686098 0.08216099 -0.071109876 0.15589789 -0.20394827 0.3000422 -0.2272327 -0.12310702 0.07274757 0.119408846 -0.14192915 -0.041116018 0.13370487 0.06370522 0.08366353 -0.11510466 0.06427121 -0.08910211 0.00073730946 -0.062606834 0.006958621 -0.06613355 0.0040716613 -0.07778958 -0.09434108 -0.026486602 -0.11541394 0.18708675 0.060903788 0.014440911 0.16436206 0.16688307 -0.030381475 -0.20387588 -0.11859417 -0.16033919 -0.08085614 -0.2583551 0.30588844 0.0050901133 -0.0055182152 -0.28631598 -0.08269719 0.11435294 0.1799171 -0.14669457 0.08764754 -0.021228518 -0.02583465 -0.094484724 -0.037605915 0.031530116 0.102171935 -0.010514123 0.062554784 -0.09266547 0.19202642 0.01593001 -0.06907679 0.0068557775 0.073175736 -0.09041878 -0.014375968 -0.07601045 -0.014403837 -0.14625876 0.30705926 0.0069292104 -0.039344553 0.09043818 -0.049348064 -0.015921285 -0.1202536 0.08850221 -0.04709215 -0.07538843 -0.424782 0.18331443 0.24574587 -0.008846666 -0.33419213 -0.041563 -0.08369037 -0.0288003 0.012327535 -0.14314796 -0.17445062 -0.15917006 0.13277437 0.06462132 -0.16338828 0.293917 0.06818175 -0.016083028 0.08183944 -0.038540762 0.08895507 0.018575689 -0.10986691 -0.099454105 -0.13204208 0.09102987 -0.093534745 -0.03386816 -0.068254724 -0.11107898 0.119100325 0.10494213 0.08477406 -0.06309737 0.14122589 -0.031727325 0.0002002631 -0.095229134 -0.08472884 0.041208047 0.03367097 -0.006880428 0.032767706 0.12573579 -0.16398445 -0.06765352 0.055631332 0.047258563 -0.04254635 0.18689437 -0.0095011 -0.1347973 0.084711656 -0.025292162 -0.00045563493 -0.023459656 0.08741784 0.009516052 -0.010684456 0.0613573 0.016892355 -0.019700263
AAC 0.058590412 0.1869479 0.11194849 -0.06505602 0.1115487 -0.21513331 0.09059828 0.0040397644 0.008288069 0.017871257 -0.04749162 0.15595388 -0.09728866 0.033895552 -0.030871106 -0.0804958 0.08818679 0.058242865 0.0473142 0.063390344 0.010561841 -0.016868422 -0.03345306 0.08858275 0.09279188 -0.0141761815 0.009779981 0.02375102 -0.028030787 -0.10833938 -0.06340977 -0.024971792 -0.199972 0.037666798 0.23484461 0.04070093 0.10670822 -0.14807944 0.01015072 0.0015665804 0.08721803 -0.16272007 -0.03767085 0.045522552 -0.030614154 -0.05499826 -0.10137399 0.20082684 0.17382894 -0.032339007 -0.04924384 0.01988549 -0.052012343 0.08171488 -0.09225704 -0.004451922 0.10222668 -0.07536989 0.076711036 -0.070971504 0.10453118 -0.035410564 -0.028026955 0.11882567 0.04792365 -0.11399753 -0.056952685 -0.05107093 0.04815306 -0.20065342 0.022091882 0.17919163 0.124154806 -0.008924791 -0.05251486 -0.028765533 0.0033880982 0.026002645 -0.13477048 0.03088866 0.13023762 0.084140435 -0.14902596 -0.032333713 0.02170166 0.09048452 -0.11207425 -0.03834302 0.054117795 0.020346837 -0.024309227 0.03408242 -0.11916982 0.015160561 0.09633189 0.01297257 -0.031754095 -0.27777198 -0.07520795 0.016607728 -0.02984483 -0.12323699 0.1836884 -0.016608069 0.030918572 -0.020072851 -0.057250567 -0.016001225 0.191926 0.1837453 -0.0020456824 -0.022543361 -0.050556283 -0.029795578 0.066034056 0.030875752 -0.089741096 -0.02937953 0.026737494 0.0794485 0.11426769 -0.053716164 0.090408206 0.105428934 0.061340112 0.002300969 -0.05708458 0.011881939 -0.13962139 -0.017549047 -0.17320098 -0.11606924 -0.106999926 0.093654394 0.083443776 0.116041236 -0.2523944 0.13895105 -0.056996703 0.045068238 -0.12352276 0.02217056 0.042306963 0.22420968 0.034164388 0.01022189 -0.024562346 -0.031314712 0.25978565 0.10481753 0.009083527 -0.06271952 -0.017764952 -0.072743244 0.030656543 -0.023549864 -0.0031741303 -0.0734263 -0.006148168 -0.098029956 0.14553809 -0.13602537 -0.14448807 -0.0069504636 -0.060288616 0.18228151 -0.22057916 0.28001627 -0.21797453 -0.06764974 0.07426377 0.12720975 -0.045932226 0.07055872 0.21687733 0.14628898 0.14702316 -0.092671566 0.06210988 -0.12204866 -0.003993988 -0.10465598 0.02140539 -0.002564196 0.041959796 -0.103419594 -0.065164566 0.023614988 -0.109203406 0.06895779 0.009513999 0.0058555943 0.20298986 0.13228263 -0.065397464 -0.21490076 -0.07507694 -0.11261325 -0.09225273 -0.21014163 0.29253554 0.006214891 0.030341659 -0.21549252 -0.12296801 0.076210834 0.12870076 -0.07460601 0.0423827 -0.116598554 -0.01711844 -0.13743591 -0.11763382 -0.012717639 0.14486548 0.031853456 0.12641071 -0.124092884 0.11754702 -0.06084826 -0.058608413 -0.03909513 0.1144792 -0.054170784 0.06740582 -0.021280512 0.033872195 -0.109091245 0.2542351 0.024214515 -0.030196037 0.035123806 -0.066933386 -0.053049725 -0.14764047 0.07956885 -0.05978616 -0.05747715 -0.3720576 0.15105926 0.2570298 0.07829137 -0.23424265 0.015010868 0.021872384 -0.055529334 0.05056801 -0.088693395 -0.20781541 -0.15031324 0.073044285 0.06446199 -0.16908053 0.24644266 0.040407576 0.082366206 0.049855266 -0.065111026 0.09971339 0.07047628 -0.14453457 -0.12982652 -0.17757371 0.098782316 -0.11667216 0.013373315 -0.027977671 -0.0761516 0.14632723 0.060867827 0.0017965181 -0.012515987 0.12359253 -0.018659336 -0.07016686 -0.050713606 -0.07978125 0.038168367 0.028061423 0.015894711 0.024508085 0.13034739 -0.22201999 -0.060863573 0.0030540866 0.049926776 0.005617476 0.16624618 0.06341981 -0.11459266 0.08747232 -0.105853036 0.02748704 -0.1028456 0.07283764 0.08277805 -0.02825846 0.109016635 0.00048310417 -0.013918885
AT 0.10989036 0.04808512 0.10285556 -0.2296256 0.016996358 -0.16856039 0.03331778 0.03292283 -0.04363473 -0.08275799 0.04900596 0.023188684 -0.0466128 -0.08036513 0.062195346 -0.03677065 0.15568136 -0.016119245 0.050825875 0.07814745 -0.11186867 0.060680483 -0.034833275 0.16175082 0.10083935 -0.021792293 0.046537623 0.031984966 -0.10333622 -0.019004319 -0.07728561 -0.02365515 -0.106824465 -0.012113094 0.18628785 0.009404176 0.032140285 -0.114164576 -0.05265124 0.035945535 0.09562543 -0.11044954 -0.049459558 -0.06992478 -0.03991541 0.024976518 -0.04531748 0.114774376 0.08001884 -0.09404577 -0.030049838 -0.10838763 -0.081651956 0.16821414 -0.22922948 0.0014766471 0.05024392 -0.09862426 0.04627879 -0.07208076 0.048137784 -0.02655519 -0.0710775 0.13313222 -0.006986734 -0.16723932 -0.04239314 -0.062016472 -0.00079154305 -0.1697024 0.039369445 0.1585644 0.039544675 -0.006288343 -0.118866734 -0.027549135 -0.0921927 0.04586339 -0.11992124 -0.102527596 0.09170511 -0.07264458 0.01816437 0.008497622 0.058577783 0.03548599 -0.06886449 -0.0010620885 0.10921852 -0.06504445 -0.0032159355 0.001230412 -0.07860323 -0.051152945 0.053244963 -0.015098391 0.06910094 -0.18552934 -0.013274586 0.07154097 -0.026549153 -0.045016866 0.061396513 -0.0683184 -0.0068504545 -0.0030829774 -0.06475294 0.046381313 0.056354992 0.19211489 0.006459104 -0.008434083 -0.093860894 -0.02461315 0.014398615 0.009357267 0.059022453 0.011886107 -0.0054995483 0.057359412 0.104029655 -0.059636075 0.11539105 0.014190131 0.006020678 -1.61065e-05 -0.015456325 -0.049078926 -0.16825609 -0.029646702 -0.14042896 -0.21524495 -0.06089184 0.10677127 0.115000285 0.10157274 -0.23330964 0.2262231 -0.059306722 0.17436586 -0.11671034 -0.029584195 0.050115228 0.21036331 0.182887 -0.007072899 -0.11000761 -0.039411794 0.28817824 -0.012691485 -0.06857586 -0.0064597437 -0.034996074 0.013466165 -0.004250447 -0.11151889 -0.035778683 0.0076808133 -0.053804286 -0.08866552 0.14011237 -0.0897416 -0.107268624 0.059287336 -0.088759 0.22199692 -0.15239614 0.21240167 -0.28374523 -0.079352826 0.11408538 0.20836711 -0.10013691 -0.05139257 0.14392759 0.070965685 0.06696239 -0.14711006 0.068582706 -0.1301108 -0.022914883 -0.093758196 -0.019251505 -0.027221905 -0.012835218 -0.08446845 -0.117791705 -0.014616264 -0.043170232 0.05614583 0.08858017 0.002961344 0.13781974 0.10133391 0.018322745 -0.21198983 -0.07510063 -0.045800075 -0.07051877 -0.21114253 0.17432268 -0.00035097863 0.042261586 -0.26132265 -0.14671962 0.04201389 0.15990582 -0.10908438 -0.00091688003 -0.060157105 -0.056365576 -0.1365818 -0.040968217 -0.03816178 0.12876372 0.020084858 0.07795853 -0.08817231 0.11658369 -0.012259092 0.022106498 0.002809498 0.06279593 -0.11669901 0.12567084 -0.06579065 -0.031332597 -0.14306709 0.24677682 -0.027195774 0.06385437 0.048742585 -0.09183213 -0.023653217 -0.15892896 0.10742697 -0.06784433 -0.063798584 -0.3941377 0.16282266 0.2397093 0.07233859 -0.25412068 -0.019470401 0.13584694 -0.017871909 0.09910938 -0.15291469 -0.1948039 -0.17792903 0.008439819 0.064117275 -0.07377618 0.23383993 -0.023062268 0.094936766 0.08076705 -0.074017204 -0.036585696 0.11035696 -0.087601796 -0.053454928 -0.18734159 0.15400805 -0.08068286 -0.0881791 -0.010123385 -0.0659898 0.17543335 0.118848205 -0.031629756 -0.043305874 0.1265561 0.010159476 -0.108758874 -0.03500764 -0.035334177 -0.037334494 0.067419976 0.04023795 0.048682187 0.086731896 -0.23284966 -0.093205556 0.0764089 0.017956885 -0.04014573 0.11576116 -0.024444554 -0.11830297 0.076732315 -0.07760289 0.07231168 -0.13523299 0.07384271 -0.016785238 -0.05352264 0.1626827 0.037204623 0.0018391327
G 0.1620629 0.15255174 0.08559072 -0.0975771 0.089055344 -0.26984906 0.012906402 0.042763613 -0.10369392 -0.16981855 -0.026979852 0.13648196 -0.020483911 0.09651399 0.01571567 -0.06559725 0.049150087 0.053218126 -0.07377758 0.038445435 -0.12869577 0.1369812 -0.13289852 0.09113093 0.08081859 -0.05228434 0.068183854 -0.16390148 -0.11866999 -0.09469886 -0.0026564717 0.032173134 -0.1140448 0.025077533 -0.006969571 -0.008519173 0.075824454 -0.08507931 0.049593974 0.08237009 0.04019804 -0.08434925 -0.15014872 -0.03767395 -0.09722805 -0.13448282 -0.19454055 0.2172761 0.18650107 -0.02507329 -0.10530877 -0.092378184 -0.11296852 0.083924256 -0.15938416 0.059414815 0.10559988 -0.15772775 0.0020186305 -0.03422048 0.10422311 -0.12069764 -0.06436358 0.22606905 0.040270425 0.0281909 -0.04721546 0.019860769 0.09972644 -0.06789527 0.022980928 0.03845366 0.014786196 0.018586349 -0.09646664 -0.08685322 -0.1493772 0.01703043 -0.12349069 -0.039030027 0.036473084 0.12970933 -0.12703955 -0.008020783 -0.050085783 0.24154072 -0.04540195 -0.046003677 -0.027123336 -0.049381066 0.10187473 -0.112955466 -0.06651149 -0.016594123 -0.025407314 -0.04250248 -0.08386288 -0.2509881 -0.036775112 0.08475766 -0.05144472 -0.09871721 0.011576462 0.03102405 0.11409323 -0.032673884 0.0746304 0.03400154 0.10039892 0.14665201 0.0920826 -0.07248716 0.022866726 -0.08465566 0.112438776 0.03640165 -0.035090663 0.03437264 -0.08236572 0.011500788 0.15364285 -0.03631563 0.07431898 0.024437178 0.07720504 -0.020528506 -0.12164035 -0.16267547 -0.09219177 0.008553743 -0.10052197 -0.06389594 -0.16644573 -0.010215616 0.07486942 0.086043835 -0.22340994 0.14961019 -0.043631412 0.1790163 -0.15344968 -0.00058641436 0.0874753 0.26670408 0.020651126 0.060902406 -0.041921355 -0.038636733 0.2669881 -0.023324203 -0.20860088 0.026953936 0.020275664 -0.118197106 0.0105181215 -0.0693017 0.0067732097 -0.06762691 -0.0908999 -0.024024868 0.012110138 -0.21434024 -0.137911 -0.0069860457 0.06718139 0.18848857 -0.21860361 0.22084904 -0.27599877 -0.18860722 0.030738782 0.046967603 -0.017827798 -0.12946555 0.07139282 0.1543138 0.20500246 -0.13047452 0.05564346 -0.16471009 0.07712982 -0.016775412 0.04696407 -0.055125095 0.012465334 -0.05719342 -0.080587864 0.058929157 -0.02385826 0.11236791 -0.004344034 0.04891629 0.20530847 0.18532279 0.018548107 -0.09718766 -0.10584841 -0.18650839 -0.15842643 -0.123299405 0.35468292 -0.001330024 0.04162264 -0.17552605 -0.09950533 0.12960958 0.020713996 0.054141093 0.029408133 -0.08904638 -0.03763778 -0.04676838 -0.059296757 0.0031194924 0.0377553 0.010103798 0.113007024 0.002411127 0.08729186 -0.03263724 -0.030467177 -0.0143717285 0.061044645 -0.053702734 0.103956446 -0.005326259 0.08850213 -0.0028419017 0.2171503 0.005591154 0.042078912 -0.08838668 0.006269193 -0.07170129 -0.033562183 0.09409678 -0.01251098 -0.052695177 -0.2718615 0.124711595 0.11615739 0.029291868 -0.19813232 -0.03907563 -0.055648535 -0.03988095 0.06322269 -0.02709136 -0.19463739 -0.14434095 0.050551273 0.14277124 -0.054376315 0.23898904 -0.011999321 0.08811655 0.1477575 -0.17971417 0.0436188 0.11455242 -0.046916295 -0.15771063 -0.25709328 0.026116658 -0.092068374 0.032750033 -0.055580806 0.053554915 0.09895923 -0.0040605543 0.037694573 -0.068647146 0.156841 0.018792491 -0.03920125 -0.033925284 -0.102687225 0.14043619 0.059868813 -0.022922289 0.0111492155 -0.045829106 -0.25300604 -0.016000485 0.048017215 0.032430507 -0.07355187 0.19646458 -0.0042645456 -0.08380459 0.13034458 -0.060488425 -0.012813759 0.012190151 0.046956144 0.122676805 -0.015735483 0.19937399 0.020394009 -0.044657014
GG 0.22936638 0.17039521 0.1773786 -0.009177052 0.08533483 -0.076083116 0.009263221 -0.013328499 -0.13786107 -0.16329177 -0.0365526 0.16676314 -0.010874834 0.05343151 -0.0030000343 -0.040861078 0.04289847 0.06814477 -0.0711973 -0.013594092 -0.19217587 0.12752193 -0.05439112 0.09219559 0.20401406 -0.048393633 0.08096819 -0.06404872 -0.03467433 -0.10358707 0.070096225 0.1362811 -0.20266217 0.07004031 0.111469865 0.026947763 0.0309968 -0.19767377 0.034230735 0.017181477 0.017150084 -0.12466555 -0.022466553 0.036639053 -0.098438635 0.014083465 -0.22678596 0.2027643 0.13357669 -0.0047083963 -0.1211275 0.038569912 -0.11175697 0.04541203 -0.13588582 0.027460158 0.04350858 -0.119427525 0.017933773 -0.03274021 0.13422285 -0.025921477 0.0044086245 0.12223433 0.06478749 -0.02058294 -0.032688037 -0.060619432 0.084596545 -0.16719706 0.06561197 0.12222777 0.070996575 -0.0635173 -0.07477564 -0.07112053 -0.06832226 0.0104739135 -0.17303753 -0.029598765 0.16098182 0.11314098 -0.086689435 0.02167262 0.00045100847 0.19188258 -0.16221942 -0.06821389 0.09959396 0.029245563 0.022557842 -0.12132067 -0.11375758 -0.053228218 -0.047984123 -0.054755412 -0.091062956 -0.26357353 0.03007608 0.08581599 -0.04481983 -0.090153575 0.17349726 -0.0015028715 0.11219558 -0.017777642 -0.074575745 0.16952556 0.086298004 0.20476781 0.09796582 -0.103991404 0.106135644 -0.1180705 0.13691078 0.059567053 -0.10780513 0.082845934 -0.04721624 0.03795251 0.16111878 -0.06361679 0.07701246 0.07342914 0.05230048 -0.043264125 -0.08209676 0.029542714 -0.06397721 0.014865067 -0.09804578 -0.06101404 -0.16679035 -0.028287616 0.11841895 0.067274705 -0.26246795 0.14845036 -0.123183794 0.057167556 -0.1860497 -0.06250849 0.016187642 0.22456577 0.09448368 -0.0019316673 -0.044504374 -0.09867379 0.30727288 0.0592822 -0.09188693 -0.07473511 -0.036077302 -0.07736865 -0.041636188 -0.08956758 -0.010708769 -0.02680058 -0.160353 -0.09416887 0.06950418 -0.076784916 -0.0755431 0.086631246 0.04843982 0.30139834 -0.21438831 0.31176805 -0.26011515 -0.15551175 0.09298243 0.1523589 -0.094339214 -0.058174714 0.19870599 0.13600677 0.04194733 -0.08042811 0.057916548 -0.17331688 0.055754762 -0.0750981 0.007370207 -0.03870923 -0.00920007 -0.060076553 -0.063406095 0.037849292 -0.0753314 0.17395571 -0.025040388 -0.017817497 0.28623703 0.1541411 0.06043784 -0.1997295 -0.12879904 -0.1533199 -0.13130645 -0.122234076 0.31518352 0.00014750163 0.10746903 -0.18344826 -0.12413846 0.17974101 0.16657257 -0.017806662 0.056603253 -0.11789332 0.024471257 -0.056275472 -0.016347464 0.0006921424 0.118023835 -0.01113783 0.14050995 -0.099744424 0.053102836 -0.036981735 -0.0432704 -0.087242156 0.051649705 -0.025417222 0.062511355 -0.01562759 0.13199286 0.041888688 0.22661188 -0.040893953 -0.0333145 -0.061430216 0.0127488775 -0.072741695 -0.09526041 0.10029631 -0.0046703154 0.0041954913 -0.31363562 0.15308598 0.2503469 -0.017040815 -0.32490203 -0.09186639 0.023279458 -0.047581475 0.040998247 -0.06796217 -0.24390878 -0.17110726 -0.011557447 0.06009531 -0.099620424 0.16533649 0.1477841 0.08834992 0.09007455 -0.19660297 0.067253895 0.1260696 -0.2104565 -0.11148337 -0.24209152 0.034783892 -0.18421657 -0.08997875 -0.06345752 -0.046281654 0.09445639 -0.015141289 0.020073375 -0.091733776 0.14608833 0.043446597 -0.06066014 -0.07146594 -0.18110341 0.101344824 -0.0032458836 0.046390373 0.08114561 0.043782976 -0.2746446 -0.044119865 0.0040345723 0.09429593 -0.04379544 0.21665603 0.05736502 -0.12655658 0.07584945 -0.049073562 0.008624103 -0.11060829 0.10295606 0.054614782 0.0075781476 0.08729923 -0.009971295 -0.00904784
GC 0.14615768 0.1894812 0.041725688 -0.016675578 0.06322384 -0.093051486 0.0122299725 -0.07729128 -0.17802769 -0.09984552 -0.044746738 0.13423198 -0.061844215 -0.010429369 -0.062260967 -0.10335228 -0.021445725 0.050035372 -0.06662469 0.04776569 -0.10644457 0.13453838 -0.021046005 0.09386522 0.09094299 -0.10296522 0.096684724 -0.07829157 -0.00815622 -0.14890511 -0.008311855 0.11944628 -0.24682556 0.046969652 0.20546171 0.008246739 0.04322411 -0.22965892 0.031219222 0.03809256 0.034033697 -0.16443866 -0.0487966 0.005320443 -0.0766441 0.029720731 -0.17901158 0.18977594 0.08807532 -0.001963834 -0.10640661 0.10771529 -0.025796361 0.030534407 -0.1745363 -0.03840445 0.13797563 -0.06455525 -0.013723354 -0.0063882405 0.06404439 0.012183083 -0.0075977645 0.19851632 0.008435462 -0.010752254 -0.0907667 -0.08693446 0.09556956 -0.22480726 0.077555165 0.03188316 0.092133366 -0.00069761276 -0.16754675 0.013534334 -0.14860933 0.004381763 -0.0756754 -0.010488219 0.08277067 0.08500854 -0.15837905 -0.043883324 0.06580237 0.16347533 -0.08819347 -0.10139985 0.09821775 0.02981905 -0.012838894 -0.011318419 -0.13544734 0.007789718 0.027161201 -0.007383966 -0.1565036 -0.3014687 0.0074505806 0.07984956 -0.05547963 -0.11415815 0.18285502 -0.07392155 0.07239943 -0.08840447 -0.050567146 0.10505705 0.11382859 0.18119164 0.12976138 -0.052571986 -0.0075845453 -0.059216976 0.08222903 0.079521045 -0.072144456 0.06915638 -0.03324249 0.06762809 0.12477197 -0.067228265 0.039792564 0.10556188 -0.011627118 -0.022338768 -0.04679717 -0.02482336 -0.113930956 -0.062274415 -0.15053828 -0.07073106 -0.11614296 0.02768098 0.044349704 0.14086954 -0.24576813 0.1409638 -0.060276628 0.07363856 -0.25724518 0.0059388345 0.042793706 0.2004536 0.14553514 0.0022173987 -0.043554578 -0.07209481 0.24620798 0.009664787 -0.12892677 -0.015189654 0.050407276 -0.08236938 -0.060949292 -0.07869024 -0.018447127 -0.0074233413 -0.1232681 -0.04812262 0.18469928 -0.1507768 -0.10680722 0.05435957 -0.012600396 0.21137473 -0.15546158 0.31216955 -0.26447943 -0.07998485 0.14419383 0.1503396 -0.021026453 0.008062707 0.18295105 0.1532883 0.16358869 -0.099678844 0.062058184 -0.29307118 -0.0023621982 -0.05665969 0.10189904 0.063819796 -0.0056114993 0.012324095 -0.07677232 0.008805547 -0.05355308 0.15507923 -0.025437143 -0.032394502 0.41617867 0.16453701 0.030687757 -0.23666072 -0.17925692 -0.05732139 -0.21239398 -0.15195173 0.28994402 -0.05979003 0.16235383 -0.14845985 -0.08312869 0.17458537 0.16923846 -0.03643539 -0.0061632926 -0.11692932 0.011120899 -0.10522326 -0.10107997 0.0042439303 0.2097729 0.0043744496 0.14742552 -0.12873942 0.106704526 -0.05593139 -0.08933316 -0.00019423167 0.11572085 -0.0581628 0.065923214 -0.055430364 0.07435449 -0.057398677 0.21823792 -0.026264323 -0.010829634 -0.047970105 -0.053991422 -0.03607436 -0.13404785 0.16202497 -0.043790594 0.039658245 -0.35349953 0.16027457 0.26286066 -0.041474584 -0.25548914 -0.09717952 -0.06873446 -0.059932034 0.11138046 -0.046127293 -0.21708076 -0.1700886 -0.0028053124 0.12212411 -0.11630493 0.2804716 0.08841229 0.07679106 0.09595699 -0.18525621 0.053662643 0.102740206 -0.09422266 -0.021081269 -0.17028639 0.07279657 -0.09592505 -0.03937712 -0.070197426 -0.047795866 0.12126403 0.070391454 -0.03860753 -0.019489607 0.14044401 0.04269661 0.02963511 -0.018783012 -0.19282548 0.10729001 0.029707419 -0.0039624507 0.07251414 0.09678552 -0.21551603 0.004624665 0.044621028 0.053394504 0.015626738 0.25035205 -0.009167711 -0.06256555 0.072832055 -0.11280525 -0.079860725 -0.14699477 0.13805185 0.14041606 -0.02416902 0.1119317 0.035947137 -0.009787957
CCC 0.15745558 0.23216166 0.110392705 -0.09738878 0.09106966 -0.080076985 -0.013239895 0.14037119 -0.11989676 -0.18374155 -0.075119 0.04677214 -0.11574739 -0.11462738 -0.039645277 0.023000939 0.13272527 0.018092241 0.0461373 0.0492871 -0.12296077 0.01678736 -0.07183687 0.14121561 0.086709954 -0.06262461 0.050906282 0.015293973 -0.12001618 -0.15096167 0.008634874 -0.0077824933 -0.29200575 0.07250134 0.053444657 0.087026015 0.06516753 -0.08416226 -0.057605863 0.06399421 -0.0017125777 -0.10206127 -0.046737295 -0.0035802636 -0.11350618 -0.1364806 -0.11603381 0.17232893 0.21571445 -0.050761074 -0.024074614 -0.028066473 -0.040853295 0.125819 -0.10731314 -0.082507335 0.04948153 -0.18490088 0.10023574 -0.05414767 0.0725808 -0.06327615 -0.02178863 0.22899258 0.035106897 -0.101765834 0.017469214 -0.10869585 0.03645585 -0.22104321 -0.008514253 0.15707958 0.09898555 -0.028963668 -0.12662517 -0.026518336 -0.068657026 -0.024377754 -0.21890831 0.09920217 0.23417723 -0.030452473 -0.09517515 0.02447973 0.08826397 0.15972053 -0.06844779 -0.09307672 0.053993832 0.040008362 -0.029841797 -0.0006258743 -0.12955591 -0.098564014 0.02873746 -0.06208391 -0.058286197 -0.33662173 0.034902778 -0.008935417 -0.08370958 -0.15409711 0.28476265 -0.024501545 0.07121795 0.021049142 -0.020091003 0.015291401 0.18509592 0.1521064 -0.02530791 -0.016232934 -0.18466613 -0.024416242 -0.0008228336 0.0950299 -0.1324744 0.009134195 -0.0025594917 -0.001066889 0.1369962 -0.0921764 0.08587994 0.12326242 0.029767837 0.052516814 -0.063192606 -0.02207956 -0.1722523 -0.0105785895 -0.09844182 -0.1638236 -0.1354809 -0.037511297 0.13595672 0.105011664 -0.21793747 0.21082471 0.024670472 0.09663075 -0.22342746 0.07807887 -0.01966052 0.28527805 0.027896686 0.015038525 0.027932486 -0.15122922 0.27828938 0.18007837 -0.0063926843 0.028351856 0.096076265 -0.13561755 -0.08012166 -0.13598956 -0.0014742741 -0.066378266 0.07446735 -0.042375904 0.0790354 -0.14197694 -0.21900333 0.12891161 -0.083959766 0.1642987 -0.3733229 0.28662136 -0.21885136 -0.12023352 0.13062274 0.24041358 -0.06296243 -0.06727844 0.29320025 0.024413893 0.18327841 -0.11074308 0.16831763 -0.10873671 -0.008248056 -0.11632766 0.09703203 0.016817799 -0.013342568 -0.10097038 -0.14316328 0.043107104 -0.17060764 0.17957349 0.072704546 0.086284265 0.14005318 0.18821096 -0.0411331 -0.19371666 -0.07140017 -0.054495163 -0.19768913 -0.28940478 0.345696 0.117070064 0.13644256 -0.19905111 -0.10326094 0.16079783 0.21557648 -0.10080719 0.12651463 -0.07431936 0.096197546 -0.0926684 -0.10638615 0.023845997 0.14644878 -0.037316952 0.14108537 -0.15830822 0.12516664 0.048755936 -0.0074989456 -0.062420454 0.04744586 0.0056689084 -0.05784052 -0.029964406 -0.020118406 -0.13189794 0.2580866 0.051874597 0.12152909 -0.09999653 0.069950275 -0.08940635 0.024617229 0.057831697 -0.027969768 -0.08942473 -0.28915796 0.21785603 0.21709636 0.075546905 -0.31126314 0.087779626 0.056567635 -0.085700475 -0.01692008 -0.11993264 -0.15304603 -0.20688047 0.07641821 0.08857817 -0.16135001 0.23442642 -0.008152872 0.091613196 0.012984855 -0.009566441 0.10777296 0.066983506 -0.107023716 -0.12535946 -0.173348 0.089736424 -0.13693453 -0.028281612 -0.008254511 -0.07937511 0.22128953 0.043609798 0.07207478 -0.0150905335 0.055653077 -0.05325212 -0.062025767 -0.059759293 -0.17239907 0.13963212 0.08483468 0.06290472 0.0394555 0.15795223 -0.21359025 -0.04955533 -0.010585691 0.00082763605 -0.013795553 0.2436832 -0.024959948 -0.06547494 0.17029224 -0.14259769 -0.0138786435 -0.12770471 0.12663893 0.099198475 -0.024073293 0.082783446 -0.09722711 -0.06637078
T 0.12426863 0.14343674 0.17969978 -0.0069016456 0.10252061 -0.16409495 0.19425067 0.19950554 -0.06418147 -0.08595745 -0.05356369 -0.06371991 0.09630927 0.065994404 -0.036802255 -0.07542856 -0.03475494 -0.077206284 -0.07998712 -0.03169925 -0.11688872 0.13329515 0.08707804 -0.022325981 0.05114631 -0.021389604 0.06431635 -0.0075178146 0.0042836876 0.012437296 0.04141323 0.13757047 -0.13807054 0.023753215 -0.0022170544 -0.014790976 0.09542514 -0.20573656 0.021088231 -0.05031197 0.062903665 -0.06619146 -0.1160241 -0.18186554 0.031157946 -0.057340622 -0.14910404 0.08673374 0.1618919 0.015226674 -0.020436198 -0.10499048 -0.10746074 0.031653143 -0.18411799 0.07524103 0.059363104 -0.11095963 -0.013102353 -0.030023122 0.05934621 -0.11504354 0.037876654 0.058430098 0.0118485745 -0.09649296 -0.08782496 0.028893853 0.15698487 -0.15395293 0.011489582 0.16210318 0.021038245 0.030816983 -0.09670673 -0.0028231144 -0.061798524 0.051508047 -0.15851012 0.0034296408 -0.01760248 0.12179241 -0.06990828 0.073333815 0.10271325 0.16870627 -0.07008375 -0.036872648 0.08062975 -0.04461205 0.030155683 -0.06604445 -0.05649691 -0.024812508 0.077351525 -0.0046007186 -0.009610176 -0.2508503 -0.07225706 0.07946114 -0.018220281 -0.11290492 0.10861577 -0.03976357 0.08958845 0.0644346 0.021093283 -0.048332453 0.029251669 0.17513545 0.065104485 -0.047308825 -0.009220314 -0.006223142 0.12961099 0.00094189646 -0.13520923 0.08814807 -0.03826513 0.0468126 0.05099087 -0.07863331 0.042208817 0.08681276 0.026635837 0.019368673 -0.09503482 -0.014735328 -0.23495205 -0.018894423 -0.13104543 -0.097341776 -0.12641267 -0.01598375 0.19117698 0.0711004 -0.07089939 0.2237037 -0.05186547 0.09373999 -0.1546134 -0.011939001 0.020367956 0.15850906 0.15504299 0.04055352 -0.0017710685 -0.051973045 0.08577816 -0.02467401 -0.15713754 0.009807031 -0.020224452 -0.027177107 0.05943594 -0.06401855 0.023218632 -0.090327024 -0.012501692 -0.0051874877 0.027473211 -0.208038 -0.04854285 0.07384367 -0.058238126 0.26616243 -0.20762007 0.19364674 -0.2399785 -0.03050437 -0.011107075 0.25187284 -0.032806873 -0.09290125 0.06669877 -0.030180538 -0.035201948 -0.08151758 0.030170184 -0.12381245 -0.0837897 -0.06362035 0.018914413 0.026555229 0.031303953 -0.0042799474 -0.104022406 0.06965067 0.01285373 0.08112335 -0.008858991 0.07251725 0.1911757 0.071551636 0.021883989 -0.1330379 -0.00351305 -0.040855072 -0.19480245 -0.10614755 0.23865685 0.085422084 0.081571124 -0.23504 -0.090651296 0.18260595 0.052697778 -0.11966994 0.06148255 -0.06661896 -0.12638661 -0.029505586 -0.029645544 0.011113596 0.060839098 0.025735283 0.12691168 -0.04630091 0.115645505 -0.054053556 0.0589446 0.016944075 -0.04052682 -0.03067274 -0.063731685 -0.042673778 0.011698341 -0.18126354 0.27634162 -0.10267623 0.08726146 0.100686215 -0.0669147 -0.051270343 -0.022839332 0.22078688 -0.12364391 -0.008355714 -0.2968154 0.19020717 0.23148656 0.09551869 -0.26501033 -0.042805456 0.13876617 -0.064601466 0.11280589 -0.11892495 -0.07656579 -0.32566053 0.102642275 0.07838402 -0.14568774 0.33922616 0.022464823 0.12688689 0.10105529 -0.03656473 0.037327014 0.23306039 -0.044696666 -0.03232794 -0.08196738 0.194811 -0.09082727 -0.075209185 0.06467529 -0.042891055 0.13421586 0.10018928 0.00017722844 -0.044596147 0.07267046 -0.051625855 -0.09624233 -0.14283754 -0.14238045 0.12708282 -0.036793374 -0.060566384 0.014851844 0.039995264 -0.15493497 0.047919393 0.108642936 0.042900927 -0.023621082 0.095842704 -0.041302156 -0.105777144 0.16388401 -0.007000494 0.060155414 -0.078942895 -0.025936062 0.017177511 -0.060862064 0.15964137 0.014793262 -0.028080419
CC 0.20072323 0.25625214 0.01892821 -0.077410646 -0.035230212 0.0020469294 -0.020722972 0.11703173 -0.04751885 -0.15853392 -0.15997013 0.077692986 -0.10573716 0.019186934 -0.04149051 -0.13219523 0.1893428 0.08627478 0.11102358 0.02422285 0.005164517 -0.010377248 0.16699903 0.12140882 0.12489237 -0.13266152 0.045929406 0.03868172 -0.09963504 -0.14729697 -0.044973798 0.03746552 -0.39434212 -0.027337471 0.10354487 0.07991907 0.043699577 -0.19555837 -0.124767885 0.14183733 0.02992063 -0.10629532 -0.17686898 0.023020532 -0.009584268 -0.12890488 -0.21035096 0.1397987 0.29546562 0.008623686 0.016244093 -0.061534923 -0.07197629 0.06937658 -0.18167862 -0.019104414 0.07289129 -0.19070739 0.060980637 -0.0053928164 0.1672693 0.080418244 0.03992817 0.25734198 0.031609774 -0.038862016 -0.04848407 -0.056334123 -0.052170914 -0.07340728 0.11636545 0.07890834 -0.0027361447 0.024262376 0.017659558 0.101751275 -0.13967997 0.070537195 -0.19307464 0.12773357 0.15527034 0.1567919 -0.21564443 -0.0095181465 0.08100612 0.1925441 -0.0029705365 0.006725205 0.090967916 0.11539784 -0.061856374 -0.10547226 -0.20012611 -0.060049586 0.004445473 0.04924049 -0.1026064 -0.34733164 0.057981703 0.06551626 0.059566498 -0.11458678 0.27506974 -0.034451008 0.03735819 0.06292081 0.04394484 0.09179582 0.09629056 0.19900765 0.17179424 0.023017671 -0.08237309 -0.045939233 0.07185558 0.0877872 -0.13068894 -0.022108998 -0.04310894 0.053010438 0.040270433 -0.00724313 0.1682527 0.16192259 0.043261927 -0.016693937 -0.030233331 -0.10844611 -0.1691426 -0.01795492 -0.043458056 -0.1823593 -0.14984962 -0.05548329 0.003787193 0.1188933 -0.10888434 0.28118008 -0.036671042 0.12940177 -0.33389106 0.083287224 0.08071859 0.15423663 -0.021680448 0.019065486 -0.07700574 -0.08639261 0.27457023 0.22191349 -0.16319579 0.107644364 -0.051781908 -0.04972365 0.028380381 -0.21134843 0.07382923 0.013278385 0.00021515953 0.10063309 -0.009434753 -0.17953916 -0.24838898 0.16552359 -0.0023023023 0.34250876 -0.3752999 0.4068421 -0.1956734 -0.15925299 -0.05932898 0.110765964 -0.0462269 0.00033630265 0.23607953 0.0049625766 0.2567574 -0.011867219 0.078819804 -0.21098126 -0.068458185 -0.07544459 0.11010446 -0.0032613873 -0.09950275 -0.05191962 -0.09335264 -0.010195573 -0.046545107 0.16155308 0.043989353 -0.031546474 0.2994642 0.22927465 -0.01197301 -0.18254478 -0.17646243 -0.16316359 -0.23094967 -0.22332154 0.2734979 0.16039975 0.1427316 -0.172147 -0.23746593 0.09338166 0.13939762 0.07032315 0.10972771 -0.076184854 -0.00805028 -0.055698685 -0.1911301 -0.031153122 0.16260709 0.023691572 0.07502198 -0.09665831 0.03827013 0.034017827 -0.0441916 -0.043026898 0.008549001 0.013506644 -0.05489781 -0.11336817 0.07755518 -0.0299294 0.23556529 0.18998796 0.0434307 -0.06810609 0.02280585 -0.0020319885 -0.029415872 0.015579383 0.03086216 0.05399266 -0.37110612 0.06893767 0.18483251 0.06523994 -0.11633857 -0.042278554 -0.10222416 -0.08298108 0.017786464 -0.16988301 -0.09024 -0.19298537 0.044910565 0.1637519 -0.20865345 0.25596106 -0.07609501 0.10200833 0.049739838 -0.07316092 0.121632524 0.017434398 -0.04902448 -0.1471963 -0.334887 0.032553926 -0.11556833 -0.051067684 -0.18366867 0.11764906 0.1369996 -0.022416566 0.12872483 0.0349559 -0.09407602 -0.014129956 -0.08626032 -0.09351298 -0.041261356 0.19907792 -0.034683347 0.11891406 0.006781313 0.21909967 -0.23121098 0.0026967658 0.009486367 0.01254797 -0.108154885 0.2588598 0.006282422 -0.086950265 0.027290553 -0.1471835 -0.025316171 -0.064026065 0.10963228 0.25212872 0.13268262 0.09940166 -0.02673516 0.012813237
TAC 0.101565704 0.12405341 0.07302652 -0.08056235 0.11832043 -0.19835123 0.037861314 0.033070903 -0.0857963 0.0072177947 -0.028265642 0.12557861 -0.0691569 -0.0029774818 -0.024882661 -0.044235792 0.08352632 0.07457329 0.039392404 0.025300682 -0.077538215 0.009878703 0.0065057254 0.07827591 0.13534358 -0.075165324 0.028315442 -0.02530098 -0.06683149 -0.09134511 -0.041401286 0.08063637 -0.21918449 0.035070352 0.12002114 0.0754681 0.108922124 -0.09711038 0.03369384 0.0024108205 0.0956483 -0.13613233 -0.050045867 -0.034039326 -0.06804979 -0.06310422 -0.123832785 0.1951768 0.13023493 -0.029512862 -0.07212324 0.021010876 -0.06682573 0.03619901 -0.1392229 -0.05018878 0.121765494 -0.063944936 -0.007455796 -0.028432386 0.12659146 -0.0009841238 -0.036073856 0.15084918 0.06859565 -0.07658924 -0.030280868 -0.050802093 0.095376454 -0.12238133 0.021767411 0.17643787 0.11420087 0.002485105 -0.09606413 -0.040675003 -0.075871535 0.022995846 -0.117892094 -0.028623087 0.087593235 0.044625945 -0.09832774 0.036759954 0.0370199 0.047510106 -0.0844806 -0.08025493 0.04720238 0.04123199 -0.007504974 -0.0028187633 -0.15717633 0.02595067 0.07419149 0.0008191573 -0.04701939 -0.2844965 -0.030257702 0.04316061 -0.06822325 -0.12314404 0.18071142 -0.010258402 0.072970554 -0.033489246 -0.05412851 0.021283695 0.14669026 0.18288507 -0.0011045082 -0.027069092 -0.036123123 -0.07385765 0.021207323 0.05772088 -0.08645998 0.011961758 0.04135939 0.11333033 0.10924721 -0.08669664 0.07839223 0.08949421 0.033842444 0.014392585 -0.042883106 -0.012529279 -0.17045805 0.048631527 -0.16639598 -0.07867165 -0.07831446 0.05358955 0.12585011 0.07504232 -0.22302206 0.22484863 -0.078009605 0.067401625 -0.20316638 -0.0030420336 0.09099804 0.20735468 0.062699445 -0.030700207 -0.0015207572 -0.062211376 0.25793886 0.0731985 -0.045481544 -0.040308226 -0.008663433 -0.07178505 0.014791285 -0.09306145 -0.022293154 -0.054429833 0.0047370708 -0.09946077 0.10436969 -0.13407558 -0.16412319 0.032837205 -0.019524114 0.17698967 -0.15365684 0.24065031 -0.25961146 -0.05272109 0.09586179 0.1261973 -0.0535888 0.035946164 0.18148287 0.1565254 0.13965306 -0.109109655 0.07414801 -0.18241711 -0.036056314 -0.052336644 0.025341818 -0.024000691 0.015183159 -0.04702362 -0.06061234 0.052253883 -0.07524604 0.12082146 0.009476568 0.06295446 0.23942813 0.15790232 -0.011645011 -0.23573634 -0.030535022 -0.093523964 -0.17351577 -0.23329732 0.332149 -0.095285006 0.073302306 -0.20020989 -0.06014359 0.06506442 0.114613056 -0.10429744 0.06815534 -0.085566774 -0.030957425 -0.11833709 -0.053567942 -0.054193173 0.16351096 0.04853758 0.13173623 -0.11869393 0.060943995 -0.0044632894 -0.060809903 -0.030900002 0.149389 -0.05539554 0.045938015 -0.055823717 -0.0028247493 -0.1466855 0.27657384 0.08986723 -0.06915466 0.013936564 -0.12860127 -0.073497884 -0.13685778 0.10332397 0.034000814 -0.0710845 -0.34776762 0.11070865 0.27796945 0.024105454 -0.20566797 0.01404173 -0.025589058 -0.12154145 0.009664782 -0.12890208 -0.19816351 -0.1251745 0.0732872 0.052962963 -0.16140787 0.29639512 0.019304493 0.062008288 0.052471247 -0.062449045 0.077247486 0.1546766 -0.11182328 -0.10391218 -0.09567847 0.06616613 -0.13247259 -0.057116773 0.010584584 -0.046362255 0.04862448 0.1404163 -0.0055534667 -0.013570257 0.18230705 0.060177445 -0.05781322 -0.060822282 -0.13197665 0.048473526 0.01991381 0.045899417 0.030910442 0.11202977 -0.23699212 -0.057016898 0.017109102 0.037286453 -0.040734977 0.18828869 0.052388676 -0.12204301 0.07262833 -0.049003657 -0.010367104 -0.09456013 0.10088257 0.068108805 0.037682362 0.13249537 0.041258752 -0.0109760165
AGCC 0.09189434 0.1650587 0.09736042 -0.050861143 0.16512933 -0.16423532 -0.016369462 0.058072757 -0.11970887 -0.23380701 -0.060379315 0.08981176 -0.10986002 -0.03759833 0.00797694 0.01655234 0.0798138 0.078035176 -0.004374361 0.05595667 -0.093789496 0.059996523 0.028667087 0.13128754 0.14674115 -0.044706427 0.14290443 0.007466459 0.0020385147 -0.18718079 -0.03551786 0.030003596 -0.2518502 0.044323314 0.15375829 0.018490802 0.1812543 -0.23340666 0.09035523 0.073651455 0.04061731 -0.16182041 -0.12664053 0.036248576 -0.061342526 -0.04697728 -0.16910225 0.26428333 0.16938439 -0.062488247 -0.08752678 -0.026672859 -0.03854506 0.08622644 -0.122296154 0.0068333684 0.10156824 -0.1123845 0.041359667 -0.05389744 0.122707345 -0.07240699 0.0059758187 0.1703687 0.0990031 -0.05673728 -0.005260876 -0.04992802 0.079286136 -0.19317019 0.014505354 0.09683391 -0.004117775 -0.056830406 0.003109765 -0.022742981 -0.10009924 0.084468484 -0.12751964 0.030348862 0.17133366 0.14571874 -0.082219236 -0.040196516 0.04835224 0.13978079 -0.093149506 -0.07301824 0.03249764 0.01158244 -0.034614183 0.00053945184 -0.08133521 -0.018709611 -0.07555654 -0.0019389525 -0.07654872 -0.33179075 0.018153215 -0.024716329 -0.022281766 -0.092811786 0.21839134 -0.068012334 0.02664708 0.009581494 -0.050078392 0.11159545 0.10260351 0.29410255 0.09396489 -0.06568279 -0.104488686 -0.091060445 0.039161284 0.13868341 -0.0943414 0.054383673 0.007500255 -0.020269174 0.10491266 -0.06732391 0.08210448 0.14499018 0.019179571 -0.04743042 -0.07247887 -0.049074166 -0.12194127 0.0038313568 -0.02427854 -0.056634564 -0.19403204 -0.027521884 0.11135272 0.20601018 -0.3195724 0.10124656 -0.10851531 0.120008305 -0.17868826 0.0058335005 -0.048979722 0.20660372 0.067434296 0.0031126023 -0.0057658227 -0.055471707 0.31561086 0.103705265 -0.061325572 0.0010167807 0.015095985 -0.007461232 0.0599585 -0.07186563 -0.022592505 -0.06319783 -0.084200166 -0.10186241 0.10577228 -0.21159038 -0.21423014 0.023726165 0.03579887 0.30544576 -0.31379908 0.24822278 -0.27500963 -0.14206263 0.08260323 0.12355755 -0.045839667 -0.036692787 0.22782055 0.0017566204 0.18207456 -0.10475365 0.13300292 -0.18521063 0.023081278 -0.0325915 0.060684253 0.039354373 0.06946918 -0.07591811 -0.047869015 -0.03241273 -0.123196796 0.10007314 0.042645365 0.0782995 0.17915787 0.17268883 0.021236788 -0.26759243 -0.062166095 -0.04819999 -0.19479315 -0.2594427 0.31548128 0.059573222 0.040062856 -0.21324754 -0.102884784 0.19659509 0.14707932 -0.05774796 -0.037264735 -0.091920815 0.020642798 -0.083024934 -0.11668299 0.0035552979 0.12367089 -0.0022816665 0.1481906 -0.14427903 0.102100335 -0.0029458522 -0.005332911 -0.052676607 0.082057655 -0.05953263 -0.028575087 -0.062446497 0.041796602 -0.035627447 0.24042094 -0.019909024 -0.026614105 -0.06217994 -0.001983452 -0.018329656 -0.02174219 0.07063329 0.0041641654 -0.0025012244 -0.32402962 0.13068385 0.19374087 0.04083072 -0.2735166 0.027798677 0.029978013 -0.004472577 0.024754494 -0.06957456 -0.22017086 -0.1700547 0.103302635 0.09625305 -0.18425019 0.22486258 -0.009526119 0.13573848 0.13704279 -0.1014926 0.08188327 0.070677534 -0.14444964 -0.13808656 -0.09697394 0.043690376 -0.08312036 -0.03549897 -0.030691057 0.06784503 0.1850479 -0.035454303 -0.047461994 0.0019531965 0.13742441 -0.003554368 -0.044145633 -0.079733886 -0.1531463 0.117015384 0.0007243395 -0.018328374 0.03823023 0.17350774 -0.23295072 -0.0029363395 -0.0026521832 0.0392725 -0.0148491785 0.12228601 0.014205402 -0.06238977 0.09218557 -0.071595006 0.015930455 -0.06871947 0.081877604 0.16161473 0.036623586 0.11782297 -0.057999324 -0.056503642
AAGG 0.17427668 0.15670905 0.049313266 -0.089598015 0.046469282 -0.22675213 -0.04430362 0.06616546 -0.04282447 0.021568593 -0.012562716 0.15340722 -0.06688936 0.017995989 0.114287116 -0.10283439 0.17544502 0.016556656 -0.03771043 0.031405475 -0.1285772 0.07287703 -0.03378713 0.071032785 0.12839171 -0.06380467 0.10198896 -0.07207527 -0.12547025 -0.047874272 -0.050992824 -0.034318287 -0.19354519 0.012441063 0.10901513 -0.008317972 0.048031937 -0.17340165 0.09452172 0.113370895 0.042821072 -0.09743379 -0.062962785 0.00787012 -0.011077571 0.01651014 -0.19527885 0.1982962 0.09489562 -0.10320624 -0.04802219 -0.030447697 -0.06655962 0.11714859 -0.11733365 -0.014515847 0.026185716 -0.1981645 0.08264355 -0.0578837 0.10730331 -0.054803193 -0.092563674 0.09354656 0.08700113 -0.12019634 -0.09056775 -0.11745073 0.05047653 -0.13699062 0.045735277 0.2002954 0.049817003 -0.08172033 -0.10374276 -0.03207908 -0.030033242 0.020341014 -0.14567176 -0.0068026306 0.16538045 0.13062134 -0.037114304 -0.054463625 0.09795199 0.12447977 -0.08040887 -0.06474557 0.0076023997 0.05235956 -0.081105635 0.013018616 -0.068728246 0.109548405 0.028677488 -0.08183636 -0.060769744 -0.2503691 -0.008226609 -0.005720198 -0.06255059 -0.1069992 0.08423425 -0.061163396 0.067072146 -0.05982452 0.0011555195 -0.058829 0.12222503 0.19754563 0.048043728 -0.1533879 0.018047322 -0.026278947 0.045290507 0.04219408 -0.07002674 0.03691428 -0.042487092 0.029528895 0.13583872 -0.05549881 0.103181764 0.09398891 0.063567735 -0.13834918 -0.041519202 -0.029659087 -0.049752306 0.004573864 -0.16942146 -0.10663812 -0.12561233 -0.02583853 0.08846528 0.08990137 -0.19423302 0.15337521 -0.1256099 0.17162822 -0.15131342 -0.042047184 -0.009357524 0.21398398 0.076462455 -0.08192086 -0.032456588 -0.08095858 0.30129394 0.099939704 -0.087973766 0.0056360005 -0.0049689948 -0.13410917 0.040263653 -0.058781706 0.028095264 -0.092494294 -0.049710203 -0.080541015 0.03870418 -0.12444866 -0.20128718 0.07996275 0.040033054 0.17793211 -0.3522073 0.27903733 -0.29492518 -0.17134833 0.061346017 0.17813413 -0.061726093 -0.006723392 0.22429729 0.037517082 0.034364022 -0.15867734 0.12198748 -0.10286079 0.063929096 -0.119218946 0.09327792 -0.0272887 -0.01873523 -0.12293486 -0.12817784 0.01741482 -0.06550808 0.14879659 0.06396268 0.033500038 0.18107195 0.08150179 0.0474679 -0.20966296 -0.05819868 -0.06255455 -0.14212522 -0.20265599 0.30779362 -0.03882624 0.046577908 -0.22846298 -0.055866815 0.19338472 0.20555577 -0.09054049 0.0052515836 -0.06616783 -0.027159577 -0.06875038 -0.10468348 -0.04138126 0.10608071 -0.020155799 0.16076528 -0.044383146 0.1452687 0.022334673 -0.024947917 0.018344164 0.13923106 -0.05421884 0.028156599 -0.038528495 -0.035076693 -0.024757486 0.36415973 0.06861074 -0.031003121 0.027216028 0.02842915 -0.00011675358 -0.019279206 0.10159218 0.06740161 -0.06123656 -0.38929728 0.1487149 0.24456784 0.054880142 -0.3478168 0.01846674 0.14444293 -0.12785868 0.025749732 -0.2093974 -0.2272925 -0.2102755 0.1335426 0.06598961 -0.18296902 0.27240857 -0.06304572 0.12386147 0.12657598 -0.091471285 0.05303994 0.0018136591 -0.098883905 -0.120799735 -0.16405265 0.059292506 -0.07358545 -0.088295795 -0.043471396 -0.07322009 0.15632859 0.075895235 0.043703627 -0.015063142 0.16867152 0.0002894178 -0.06933641 -0.04308097 -0.1247768 0.07007128 -0.062027097 -0.033282083 0.08639838 0.12021732 -0.1410138 0.021709701 -0.008298755 0.067571245 -1.0436774e-05 0.17068154 0.028308462 -0.0510525 0.04851824 -0.03422466 -0.032019794 -0.073794164 0.054481685 0.074838266 -0.002666813 0.038006432 0.0054508285 -0.04002232
